{"features": ["BB_pct", "Hurst_1m", "RSI_1m", "RSI_5m", "Probabilidad", "Score_PUT", "Score_CALL"], "n_classes": 2, "trees": [{"children_left": [1, 2, 3, -1, -1, 6, -1, -1, 9, -1, 11, -1, -1], "children_right": [8, 5, 4, -1, -1, 7, -1, -1, 10, -1, 12, -1, -1], "feature": [6, 4, 1, -2, -2, 2, -2, -2, 0, -2, 2, -2, -2], "threshold": [25.0, 85.5, 0.3774999976158142, -2.0, -2.0, 38.70000076293945, -2.0, -2.0, 87.5, -2.0, 57.35000038146973, -2.0, -2.0], "value": [[[0.5932203389830508, 0.4067796610169492]], [[0.3333333333333333, 0.6666666666666666]], [[0.25, 0.75]], [[1.0, 0.0]], [[0.16666666666666666, 0.8333333333333334]], [[0.5714285714285714, 0.42857142857142855]], [[0.0, 1.0]], [[0.8, 0.2]], [[0.8125, 0.1875]], [[0.0, 1.0]], [[0.8387096774193549, 0.16129032258064516]], [[1.0, 0.0]], [[0.7727272727272727, 0.22727272727272727]]]}, {"children_left": [1, 2, 3, -1, -1, -1, 7, -1, 9, -1, -1], "children_right": [6, 5, 4, -1, -1, -1, 8, -1, 10, -1, -1], "feature": [1, 6, 5, -2, -2, -2, 2, -2, 2, -2, -2], "threshold": [0.835999995470047, 42.5, 66.0, -2.0, -2.0, -2.0, 52.14999961853027, -2.0, 52.75, -2.0, -2.0], "value": [[[0.4576271186440678, 0.5423728813559322]], [[0.6842105263157895, 0.3157894736842105]], [[0.6129032258064516, 0.3870967741935484]], [[0.4444444444444444, 0.5555555555555556]], [[0.8461538461538461, 0.15384615384615385]], [[1.0, 0.0]], [[0.047619047619047616, 0.9523809523809523]], [[0.0, 1.0]], [[0.125, 0.875]], [[1.0, 0.0]], [[0.0, 1.0]]]}, {"children_left": [1, 2, 3, -1, -1, 6, -1, -1, 9, 10, -1, -1, 13, -1, -1], "children_right": [8, 5, 4, -1, -1, 7, -1, -1, 12, 11, -1, -1, 14, -1, -1], "feature": [4, 4, 2, -2, -2, 6, -2, -2, 0, 6, -2, -2, 2, -2, -2], "threshold": [83.5, 76.0, 42.099998474121094, -2.0, -2.0, 24.5, -2.0, -2.0, 50.5, 14.5, -2.0, -2.0, 52.20000076293945, -2.0, -2.0], "value": [[[0.5254237288135594, 0.4745762711864407]], [[0.6086956521739131, 0.391304347826087]], [[0.6785714285714286, 0.32142857142857145]], [[1.0, 0.0]], [[0.625, 0.375]], [[0.5, 0.5]], [[0.0, 1.0]], [[0.5294117647058824, 0.47058823529411764]], [[0.23076923076923078, 0.7692307692307693]], [[0.6666666666666666, 0.3333333333333333]], [[0.5, 0.5]], [[1.0, 0.0]], [[0.1, 0.9]], [[0.0, 1.0]], [[0.2, 0.8]]]}, {"children_left": [1, 2, 3, -1, -1, 6, -1, -1, 9, 10, -1, -1, 13, -1, -1], "children_right": [8, 5, 4, -1, -1, 7, -1, -1, 12, 11, -1, -1, 14, -1, -1], "feature": [1, 6, 1, -2, -2, 1, -2, -2, 5, 2, -2, -2, 1, -2, -2], "threshold": [0.8434999883174896, 25.0, 0.3959999978542328, -2.0, -2.0, 0.8030000030994415, -2.0, -2.0, 75.5, 55.69999885559082, -2.0, -2.0, 0.8555000126361847, -2.0, -2.0], "value": [[[0.4745762711864407, 0.5254237288135594]], [[0.5882352941176471, 0.4117647058823529]], [[0.3, 0.7]], [[0.2222222222222222, 0.7777777777777778]], [[1.0, 0.0]], [[0.7083333333333334, 0.2916666666666667]], [[0.625, 0.375]], [[0.875, 0.125]], [[0.32, 0.68]], [[0.14285714285714285, 0.8571428571428571]], [[0.0, 1.0]], [[0.3333333333333333, 0.6666666666666666]], [[0.3888888888888889, 0.6111111111111112]], [[0.0, 1.0]], [[0.5384615384615384, 0.46153846153846156]]]}, {"children_left": [1, -1, 3, 4, -1, -1, 7, -1, -1], "children_right": [2, -1, 6, 5, -1, -1, 8, -1, -1], "feature": [1, -2, 2, 2, -2, -2, 6, -2, -2], "threshold": [0.2510000094771385, -2.0, 45.89999961853027, 44.69999885559082, -2.0, -2.0, 25.0, -2.0, -2.0], "value": [[[0.576271186440678, 0.423728813559322]], [[1.0, 0.0]], [[0.5370370370370371, 0.46296296296296297]], [[0.75, 0.25]], [[0.5833333333333334, 0.4166666666666667]], [[1.0, 0.0]], [[0.4117647058823529, 0.5882352941176471]], [[0.1, 0.9]], [[0.5416666666666666, 0.4583333333333333]]]}, {"children_left": [1, 2, -1, 4, -1, -1, 7, -1, 9, -1, -1], "children_right": [6, 3, -1, 5, -1, -1, 8, -1, 10, -1, -1], "feature": [2, 2, -2, 1, -2, -2, 0, -2, 4, -2, -2], "threshold": [54.60000038146973, 35.5, -2.0, 0.8600000143051147, -2.0, -2.0, 95.0, -2.0, 80.0, -2.0, -2.0], "value": [[[0.5084745762711864, 0.4915254237288136]], [[0.3125, 0.6875]], [[1.0, 0.0]], [[0.18518518518518517, 0.8148148148148148]], [[0.15384615384615385, 0.8461538461538461]], [[1.0, 0.0]], [[0.7407407407407407, 0.25925925925925924]], [[1.0, 0.0]], [[0.7083333333333334, 0.2916666666666667]], [[0.6470588235294118, 0.35294117647058826]], [[0.8571428571428571, 0.14285714285714285]]]}, {"children_left": [1, 2, 3, -1, -1, 6, -1, -1, 9, -1, 11, -1, -1], "children_right": [8, 5, 4, -1, -1, 7, -1, -1, 10, -1, 12, -1, -1], "feature": [5, 6, 5, -2, -2, 1, -2, -2, 1, -2, 0, -2, -2], "threshold": [87.0, 25.0, 80.5, -2.0, -2.0, 0.36900000274181366, -2.0, -2.0, 0.8555000126361847, -2.0, 15.5, -2.0, -2.0], "value": [[[0.6271186440677966, 0.3728813559322034]], [[0.6666666666666666, 0.3333333333333333]], [[0.47619047619047616, 0.5238095238095238]], [[0.3888888888888889, 0.6111111111111112]], [[1.0, 0.0]], [[0.7878787878787878, 0.21212121212121213]], [[0.625, 0.375]], [[0.9411764705882353, 0.058823529411764705]], [[0.2, 0.8]], [[0.0, 1.0]], [[0.5, 0.5]], [[1.0, 0.0]], [[0.0, 1.0]]]}, {"children_left": [1, 2, 3, -1, -1, 6, -1, -1, 9, -1, 11, -1, -1], "children_right": [8, 5, 4, -1, -1, 7, -1, -1, 10, -1, 12, -1, -1], "feature": [0, 0, 3, -2, -2, 1, -2, -2, 0, -2, 1, -2, -2], "threshold": [77.5, 54.0, 45.85000038146973, -2.0, -2.0, 0.8555000126361847, -2.0, -2.0, 99.5, -2.0, 0.8020000159740448, -2.0, -2.0], "value": [[[0.559322033898305, 0.4406779661016949]], [[0.41935483870967744, 0.5806451612903226]], [[0.7777777777777778, 0.2222222222222222]], [[0.8, 0.2]], [[0.75, 0.25]], [[0.2727272727272727, 0.7272727272727273]], [[0.0, 1.0]], [[0.375, 0.625]], [[0.7142857142857143, 0.2857142857142857]], [[1.0, 0.0]], [[0.6190476190476191, 0.38095238095238093]], [[0.4666666666666667, 0.5333333333333333]], [[1.0, 0.0]]]}, {"children_left": [1, 2, 3, -1, -1, 6, -1, -1, 9, -1, 11, -1, -1], "children_right": [8, 5, 4, -1, -1, 7, -1, -1, 10, -1, 12, -1, -1], "feature": [1, 2, 2, -2, -2, 6, -2, -2, 0, -2, 2, -2, -2], "threshold": [0.8499999940395355, 38.5, 34.60000038146973, -2.0, -2.0, 30.0, -2.0, -2.0, 70.5, -2.0, 52.80000114440918, -2.0, -2.0], "value": [[[0.559322033898305, 0.4406779661016949]], [[0.7692307692307693, 0.23076923076923078]], [[0.25, 0.75]], [[1.0, 0.0]], [[0.0, 1.0]], [[0.8285714285714286, 0.17142857142857143]], [[0.9473684210526315, 0.05263157894736842]], [[0.6875, 0.3125]], [[0.15, 0.85]], [[0.0, 1.0]], [[0.3, 0.7]], [[1.0, 0.0]], [[0.0, 1.0]]]}, {"children_left": [1, 2, -1, 4, -1, -1, 7, 8, -1, -1, 11, -1, -1], "children_right": [6, 3, -1, 5, -1, -1, 10, 9, -1, -1, 12, -1, -1], "feature": [4, 0, -2, 1, -2, -2, 2, 2, -2, -2, 4, -2, -2], "threshold": [72.5, 55.5, -2.0, 0.2510000094771385, -2.0, -2.0, 55.89999961853027, 43.45000076293945, -2.0, -2.0, 80.0, -2.0, -2.0], "value": [[[0.559322033898305, 0.4406779661016949]], [[0.6666666666666666, 0.3333333333333333]], [[1.0, 0.0]], [[0.5416666666666666, 0.4583333333333333]], [[0.8888888888888888, 0.1111111111111111]], [[0.3333333333333333, 0.6666666666666666]], [[0.4230769230769231, 0.5769230769230769]], [[0.2, 0.8]], [[0.0, 1.0]], [[0.3, 0.7]], [[0.7272727272727273, 0.2727272727272727]], [[0.0, 1.0]], [[0.8, 0.2]]]}, {"children_left": [1, 2, -1, 4, -1, -1, 7, 8, -1, -1, 11, -1, -1], "children_right": [6, 3, -1, 5, -1, -1, 10, 9, -1, -1, 12, -1, -1], "feature": [0, 5, -2, 4, -2, -2, 6, 6, -2, -2, 1, -2, -2], "threshold": [87.5, 62.0, -2.0, 79.0, -2.0, -2.0, 38.5, 34.0, -2.0, -2.0, 0.27000001072883606, -2.0, -2.0], "value": [[[0.5254237288135594, 0.4745762711864407]], [[0.25, 0.75]], [[0.0, 1.0]], [[0.2857142857142857, 0.7142857142857143]], [[0.6, 0.4]], [[0.1875, 0.8125]], [[0.7142857142857143, 0.2857142857142857]], [[0.6363636363636364, 0.36363636363636365]], [[0.7777777777777778, 0.2222222222222222]], [[0.0, 1.0]], [[0.8461538461538461, 0.15384615384615385]], [[1.0, 0.0]], [[0.6666666666666666, 0.3333333333333333]]]}, {"children_left": [1, 2, -1, 4, -1, -1, 7, 8, -1, -1, 11, -1, -1], "children_right": [6, 3, -1, 5, -1, -1, 10, 9, -1, -1, 12, -1, -1], "feature": [4, 0, -2, 6, -2, -2, 5, 2, -2, -2, 1, -2, -2], "threshold": [80.0, 27.5, -2.0, 28.5, -2.0, -2.0, 75.5, 58.89999961853027, -2.0, -2.0, 0.8555000126361847, -2.0, -2.0], "value": [[[0.6610169491525424, 0.3389830508474576]], [[0.6, 0.4]], [[1.0, 0.0]], [[0.5675675675675675, 0.43243243243243246]], [[0.6666666666666666, 0.3333333333333333]], [[0.52, 0.48]], [[0.7894736842105263, 0.21052631578947367]], [[0.9, 0.1]], [[1.0, 0.0]], [[0.8, 0.2]], [[0.6666666666666666, 0.3333333333333333]], [[0.0, 1.0]], [[1.0, 0.0]]]}, {"children_left": [1, 2, 3, -1, -1, 6, -1, -1, 9, 10, -1, -1, 13, -1, -1], "children_right": [8, 5, 4, -1, -1, 7, -1, -1, 12, 11, -1, -1, 14, -1, -1], "feature": [0, 0, 0, -2, -2, 0, -2, -2, 6, 0, -2, -2, 6, -2, -2], "threshold": [87.5, 9.0, 5.0, -2.0, -2.0, 70.5, -2.0, -2.0, 29.0, 99.0, -2.0, -2.0, 38.5, -2.0, -2.0], "value": [[[0.4745762711864407, 0.5254237288135594]], [[0.34375, 0.65625]], [[0.75, 0.25]], [[0.5, 0.5]], [[1.0, 0.0]], [[0.2857142857142857, 0.7142857142857143]], [[0.17647058823529413, 0.8235294117647058]], [[0.45454545454545453, 0.5454545454545454]], [[0.6296296296296297, 0.37037037037037035]], [[0.8666666666666667, 0.13333333333333333]], [[1.0, 0.0]], [[0.6, 0.4]], [[0.3333333333333333, 0.6666666666666666]], [[0.0, 1.0]], [[0.8, 0.2]]]}, {"children_left": [1, 2, 3, -1, -1, -1, 7, 8, -1, -1, 11, -1, -1], "children_right": [6, 5, 4, -1, -1, -1, 10, 9, -1, -1, 12, -1, -1], "feature": [0, 1, 5, -2, -2, -2, 4, 4, -2, -2, 6, -2, -2], "threshold": [88.5, 0.8600000143051147, 62.0, -2.0, -2.0, -2.0, 63.0, 55.5, -2.0, -2.0, 32.5, -2.0, -2.0], "value": [[[0.5932203389830508, 0.4067796610169492]], [[0.41379310344827586, 0.5862068965517241]], [[0.2608695652173913, 0.7391304347826086]], [[0.0, 1.0]], [[0.3157894736842105, 0.6842105263157895]], [[1.0, 0.0]], [[0.7666666666666667, 0.23333333333333334]], [[0.9090909090909091, 0.09090909090909091]], [[0.6666666666666666, 0.3333333333333333]], [[1.0, 0.0]], [[0.6842105263157895, 0.3157894736842105]], [[0.9, 0.1]], [[0.4444444444444444, 0.5555555555555556]]]}, {"children_left": [1, 2, 3, -1, -1, 6, -1, -1, 9, 10, -1, -1, 13, -1, -1], "children_right": [8, 5, 4, -1, -1, 7, -1, -1, 12, 11, -1, -1, 14, -1, -1], "feature": [1, 3, 4, -2, -2, 6, -2, -2, 2, 1, -2, -2, 4, -2, -2], "threshold": [0.8505000174045563, 45.85000038146973, 80.0, -2.0, -2.0, 38.5, -2.0, -2.0, 48.25, 0.8600000143051147, -2.0, -2.0, 83.5, -2.0, -2.0], "value": [[[0.6779661016949152, 0.3220338983050847]], [[0.7608695652173914, 0.2391304347826087]], [[0.9333333333333333, 0.06666666666666667]], [[0.8, 0.2]], [[1.0, 0.0]], [[0.6774193548387096, 0.3225806451612903]], [[0.5909090909090909, 0.4090909090909091]], [[0.8888888888888888, 0.1111111111111111]], [[0.38461538461538464, 0.6153846153846154]], [[0.8, 0.2]], [[0.5, 0.5]], [[1.0, 0.0]], [[0.125, 0.875]], [[0.0, 1.0]], [[0.14285714285714285, 0.8571428571428571]]]}, {"children_left": [1, 2, 3, -1, -1, -1, 7, 8, -1, -1, 11, -1, -1], "children_right": [6, 5, 4, -1, -1, -1, 10, 9, -1, -1, 12, -1, -1], "feature": [1, 5, 0, -2, -2, -2, 5, 0, -2, -2, 2, -2, -2], "threshold": [0.38450001180171967, 57.0, 81.0, -2.0, -2.0, -2.0, 75.5, 42.0, -2.0, -2.0, 38.95000076293945, -2.0, -2.0], "value": [[[0.5254237288135594, 0.4745762711864407]], [[0.2631578947368421, 0.7368421052631579]], [[0.35714285714285715, 0.6428571428571429]], [[1.0, 0.0]], [[0.3076923076923077, 0.6923076923076923]], [[0.0, 1.0]], [[0.65, 0.35]], [[0.7586206896551724, 0.2413793103448276]], [[0.3333333333333333, 0.6666666666666666]], [[0.8076923076923077, 0.19230769230769232]], [[0.36363636363636365, 0.6363636363636364]], [[0.0, 1.0]], [[0.5, 0.5]]]}, {"children_left": [1, 2, 3, -1, -1, 6, -1, -1, 9, 10, -1, -1, -1], "children_right": [8, 5, 4, -1, -1, 7, -1, -1, 12, 11, -1, -1, -1], "feature": [2, 3, 0, -2, -2, 2, -2, -2, 2, 1, -2, -2, -2], "threshold": [55.89999961853027, 45.85000038146973, 71.0, -2.0, -2.0, 41.79999923706055, -2.0, -2.0, 67.10000228881836, 0.3245000094175339, -2.0, -2.0, -2.0], "value": [[[0.5423728813559322, 0.4576271186440678]], [[0.40540540540540543, 0.5945945945945946]], [[0.16666666666666666, 0.8333333333333334]], [[0.0, 1.0]], [[0.3333333333333333, 0.6666666666666666]], [[0.631578947368421, 0.3684210526315789]], [[1.0, 0.0]], [[0.46153846153846156, 0.5384615384615384]], [[0.7727272727272727, 0.22727272727272727]], [[0.8947368421052632, 0.10526315789473684]], [[0.6666666666666666, 0.3333333333333333]], [[0.9375, 0.0625]], [[0.0, 1.0]]]}, {"children_left": [1, 2, 3, -1, -1, 6, -1, -1, 9, -1, -1], "children_right": [8, 5, 4, -1, -1, 7, -1, -1, 10, -1, -1], "feature": [1, 5, 2, -2, -2, 0, -2, -2, 1, -2, -2], "threshold": [0.8564999997615814, 71.5, 38.5, -2.0, -2.0, 73.5, -2.0, -2.0, 0.8600000143051147, -2.0, -2.0], "value": [[[0.576271186440678, 0.423728813559322]], [[0.6346153846153846, 0.36538461538461536]], [[0.5, 0.5]], [[0.16666666666666666, 0.8333333333333334]], [[0.5909090909090909, 0.4090909090909091]], [[0.7916666666666666, 0.20833333333333334]], [[1.0, 0.0]], [[0.7058823529411765, 0.29411764705882354]], [[0.14285714285714285, 0.8571428571428571]], [[0.0, 1.0]], [[1.0, 0.0]]]}, {"children_left": [1, 2, 3, -1, -1, 6, -1, -1, -1], "children_right": [8, 5, 4, -1, -1, 7, -1, -1, -1], "feature": [2, 6, 5, -2, -2, 2, -2, -2, -2], "threshold": [60.20000076293945, 21.0, 88.5, -2.0, -2.0, 47.85000038146973, -2.0, -2.0, -2.0], "value": [[[0.4576271186440678, 0.5423728813559322]], [[0.30434782608695654, 0.6956521739130435]], [[0.6666666666666666, 0.3333333333333333]], [[1.0, 0.0]], [[0.3333333333333333, 0.6666666666666666]], [[0.25, 0.75]], [[0.4444444444444444, 0.5555555555555556]], [[0.1935483870967742, 0.8064516129032258]], [[1.0, 0.0]]]}, {"children_left": [1, 2, 3, -1, -1, 6, -1, -1, 9, -1, -1], "children_right": [8, 5, 4, -1, -1, 7, -1, -1, 10, -1, -1], "feature": [1, 2, 6, -2, -2, 6, -2, -2, 1, -2, -2], "threshold": [0.8564999997615814, 50.10000038146973, 28.5, -2.0, -2.0, 29.0, -2.0, -2.0, 0.8600000143051147, -2.0, -2.0], "value": [[[0.6271186440677966, 0.3728813559322034]], [[0.6938775510204082, 0.30612244897959184]], [[0.5, 0.5]], [[0.5333333333333333, 0.4666666666666667]], [[0.0, 1.0]], [[0.7878787878787878, 0.21212121212121213]], [[0.9444444444444444, 0.05555555555555555]], [[0.6, 0.4]], [[0.3, 0.7]], [[0.0, 1.0]], [[1.0, 0.0]]]}, {"children_left": [1, 2, 3, -1, -1, 6, -1, -1, -1], "children_right": [8, 5, 4, -1, -1, 7, -1, -1, -1], "feature": [4, 6, 5, -2, -2, 1, -2, -2, -2], "threshold": [87.5, 30.5, 62.0, -2.0, -2.0, 0.2280000001192093, -2.0, -2.0, -2.0], "value": [[[0.576271186440678, 0.423728813559322]], [[0.5964912280701754, 0.40350877192982454]], [[0.5135135135135135, 0.4864864864864865]], [[0.16666666666666666, 0.8333333333333334]], [[0.5806451612903226, 0.41935483870967744]], [[0.75, 0.25]], [[0.4, 0.6]], [[0.8666666666666667, 0.13333333333333333]], [[0.0, 1.0]]]}, {"children_left": [1, 2, 3, -1, -1, 6, -1, -1, 9, 10, -1, -1, -1], "children_right": [8, 5, 4, -1, -1, 7, -1, -1, 12, 11, -1, -1, -1], "feature": [0, 4, 0, -2, -2, 4, -2, -2, 1, 1, -2, -2, -2], "threshold": [77.5, 72.5, 54.0, -2.0, -2.0, 85.5, -2.0, -2.0, 0.8400000035762787, 0.835999995470047, -2.0, -2.0, -2.0], "value": [[[0.6271186440677966, 0.3728813559322034]], [[0.4444444444444444, 0.5555555555555556]], [[0.75, 0.25]], [[1.0, 0.0]], [[0.0, 1.0]], [[0.3157894736842105, 0.6842105263157895]], [[0.21428571428571427, 0.7857142857142857]], [[0.6, 0.4]], [[0.78125, 0.21875]], [[0.7307692307692307, 0.2692307692307692]], [[0.7916666666666666, 0.20833333333333334]], [[0.0, 1.0]], [[1.0, 0.0]]]}, {"children_left": [1, 2, 3, -1, -1, 6, -1, -1, 9, 10, -1, -1, -1], "children_right": [8, 5, 4, -1, -1, 7, -1, -1, 12, 11, -1, -1, -1], "feature": [4, 4, 2, -2, -2, 1, -2, -2, 1, 2, -2, -2, -2], "threshold": [83.5, 80.0, 34.60000038146973, -2.0, -2.0, 0.8499999940395355, -2.0, -2.0, 0.8600000143051147, 40.35000038146973, -2.0, -2.0, -2.0], "value": [[[0.4915254237288136, 0.5084745762711864]], [[0.5813953488372093, 0.4186046511627907]], [[0.5, 0.5]], [[1.0, 0.0]], [[0.4230769230769231, 0.5769230769230769]], [[0.7692307692307693, 0.23076923076923078]], [[0.8333333333333334, 0.16666666666666666]], [[0.0, 1.0]], [[0.25, 0.75]], [[0.14285714285714285, 0.8571428571428571]], [[0.5, 0.5]], [[0.08333333333333333, 0.9166666666666666]], [[1.0, 0.0]]]}, {"children_left": [1, 2, 3, -1, -1, 6, -1, -1, 9, 10, -1, -1, -1], "children_right": [8, 5, 4, -1, -1, 7, -1, -1, 12, 11, -1, -1, -1], "feature": [1, 5, 2, -2, -2, 2, -2, -2, 1, 5, -2, -2, -2], "threshold": [0.30650000274181366, 49.0, 68.75, -2.0, -2.0, 67.5999984741211, -2.0, -2.0, 0.8600000143051147, 91.5, -2.0, -2.0, -2.0], "value": [[[0.5084745762711864, 0.4915254237288136]], [[0.7857142857142857, 0.21428571428571427]], [[0.75, 0.25]], [[1.0, 0.0]], [[0.0, 1.0]], [[0.8333333333333334, 0.16666666666666666]], [[0.6666666666666666, 0.3333333333333333]], [[1.0, 0.0]], [[0.4222222222222222, 0.5777777777777777]], [[0.38095238095238093, 0.6190476190476191]], [[0.35, 0.65]], [[1.0, 0.0]], [[1.0, 0.0]]]}, {"children_left": [1, 2, 3, -1, -1, 6, -1, -1, 9, 10, -1, -1, -1], "children_right": [8, 5, 4, -1, -1, 7, -1, -1, 12, 11, -1, -1, -1], "feature": [1, 2, 4, -2, -2, 1, -2, -2, 2, 0, -2, -2, -2], "threshold": [0.8499999940395355, 59.55000114440918, 71.0, -2.0, -2.0, 0.2510000094771385, -2.0, -2.0, 53.05000114440918, 71.0, -2.0, -2.0, -2.0], "value": [[[0.4406779661016949, 0.559322033898305]], [[0.5609756097560976, 0.43902439024390244]], [[0.4074074074074074, 0.5925925925925926]], [[0.2, 0.8]], [[0.5294117647058824, 0.47058823529411764]], [[0.8571428571428571, 0.14285714285714285]], [[1.0, 0.0]], [[0.7777777777777778, 0.2222222222222222]], [[0.16666666666666666, 0.8333333333333334]], [[0.3, 0.7]], [[0.125, 0.875]], [[1.0, 0.0]], [[0.0, 1.0]]]}, {"children_left": [1, 2, 3, -1, -1, 6, -1, -1, 9, 10, -1, -1, -1], "children_right": [8, 5, 4, -1, -1, 7, -1, -1, 12, 11, -1, -1, -1], "feature": [1, 4, 2, -2, -2, 1, -2, -2, 1, 4, -2, -2, -2], "threshold": [0.8519999980926514, 67.5, 64.0999984741211, -2.0, -2.0, 0.36900000274181366, -2.0, -2.0, 0.859499990940094, 81.5, -2.0, -2.0, -2.0], "value": [[[0.5084745762711864, 0.4915254237288136]], [[0.6578947368421053, 0.34210526315789475]], [[0.9090909090909091, 0.09090909090909091]], [[1.0, 0.0]], [[0.8, 0.2]], [[0.5555555555555556, 0.4444444444444444]], [[0.0, 1.0]], [[0.6521739130434783, 0.34782608695652173]], [[0.23809523809523808, 0.7619047619047619]], [[0.1111111111111111, 0.8888888888888888]], [[0.0, 1.0]], [[0.13333333333333333, 0.8666666666666667]], [[1.0, 0.0]]]}, {"children_left": [1, 2, 3, -1, -1, 6, -1, -1, 9, 10, -1, -1, 13, -1, -1], "children_right": [8, 5, 4, -1, -1, 7, -1, -1, 12, 11, -1, -1, 14, -1, -1], "feature": [1, 1, 2, -2, -2, 0, -2, -2, 5, 1, -2, -2, 1, -2, -2], "threshold": [0.3605000078678131, 0.27000001072883606, 68.75, -2.0, -2.0, 99.5, -2.0, -2.0, 80.5, 0.8434999883174896, -2.0, -2.0, 0.8600000143051147, -2.0, -2.0], "value": [[[0.4576271186440678, 0.5423728813559322]], [[0.8, 0.2]], [[0.8888888888888888, 0.1111111111111111]], [[1.0, 0.0]], [[0.6666666666666666, 0.3333333333333333]], [[0.6666666666666666, 0.3333333333333333]], [[1.0, 0.0]], [[0.6, 0.4]], [[0.3409090909090909, 0.6590909090909091]], [[0.2727272727272727, 0.7272727272727273]], [[0.4375, 0.5625]], [[0.11764705882352941, 0.8823529411764706]], [[0.5454545454545454, 0.45454545454545453]], [[0.2857142857142857, 0.7142857142857143]], [[1.0, 0.0]]]}, {"children_left": [1, 2, 3, -1, -1, -1, 7, 8, -1, -1, 11, -1, -1], "children_right": [6, 5, 4, -1, -1, -1, 10, 9, -1, -1, 12, -1, -1], "feature": [6, 0, 1, -2, -2, -2, 4, 2, -2, -2, 0, -2, -2], "threshold": [21.0, 17.0, 0.8555000126361847, -2.0, -2.0, -2.0, 83.5, 55.69999885559082, -2.0, -2.0, 69.0, -2.0, -2.0], "value": [[[0.4915254237288136, 0.5084745762711864]], [[0.75, 0.25]], [[0.4, 0.6]], [[0.0, 1.0]], [[1.0, 0.0]], [[1.0, 0.0]], [[0.425531914893617, 0.574468085106383]], [[0.48717948717948717, 0.5128205128205128]], [[0.15384615384615385, 0.8461538461538461]], [[0.6538461538461539, 0.34615384615384615]], [[0.125, 0.875]], [[0.0, 1.0]], [[0.25, 0.75]]]}, {"children_left": [1, 2, -1, 4, -1, -1, 7, 8, -1, -1, 11, -1, -1], "children_right": [6, 3, -1, 5, -1, -1, 10, 9, -1, -1, 12, -1, -1], "feature": [2, 0, -2, 0, -2, -2, 3, 1, -2, -2, 1, -2, -2], "threshold": [59.95000076293945, 9.0, -2.0, 77.5, -2.0, -2.0, 45.85000038146973, 0.8030000030994415, -2.0, -2.0, 0.2510000094771385, -2.0, -2.0], "value": [[[0.4745762711864407, 0.5254237288135594]], [[0.35135135135135137, 0.6486486486486487]], [[1.0, 0.0]], [[0.2727272727272727, 0.7272727272727273]], [[0.1875, 0.8125]], [[0.35294117647058826, 0.6470588235294118]], [[0.6818181818181818, 0.3181818181818182]], [[0.7, 0.3]], [[0.4, 0.6]], [[1.0, 0.0]], [[0.6666666666666666, 0.3333333333333333]], [[0.7777777777777778, 0.2222222222222222]], [[0.3333333333333333, 0.6666666666666666]]]}, {"children_left": [1, 2, -1, 4, -1, -1, 7, 8, -1, -1, 11, -1, -1], "children_right": [6, 3, -1, 5, -1, -1, 10, 9, -1, -1, 12, -1, -1], "feature": [5, 2, -2, 2, -2, -2, 5, 2, -2, -2, 1, -2, -2], "threshold": [75.5, 34.60000038146973, -2.0, 38.95000076293945, -2.0, -2.0, 85.0, 52.14999961853027, -2.0, -2.0, 0.8555000126361847, -2.0, -2.0], "value": [[[0.5932203389830508, 0.4067796610169492]], [[0.6530612244897959, 0.3469387755102041]], [[1.0, 0.0]], [[0.6222222222222222, 0.37777777777777777]], [[0.0, 1.0]], [[0.6511627906976745, 0.3488372093023256]], [[0.3, 0.7]], [[0.16666666666666666, 0.8333333333333334]], [[0.0, 1.0]], [[0.3333333333333333, 0.6666666666666666]], [[0.5, 0.5]], [[0.0, 1.0]], [[1.0, 0.0]]]}, {"children_left": [1, 2, 3, -1, -1, -1, 7, 8, -1, -1, 11, -1, -1], "children_right": [6, 5, 4, -1, -1, -1, 10, 9, -1, -1, 12, -1, -1], "feature": [5, 2, 0, -2, -2, -2, 5, 6, -2, -2, 2, -2, -2], "threshold": [71.5, 66.39999771118164, 54.0, -2.0, -2.0, -2.0, 75.5, 29.5, -2.0, -2.0, 52.80000114440918, -2.0, -2.0], "value": [[[0.4406779661016949, 0.559322033898305]], [[0.27586206896551724, 0.7241379310344828]], [[0.19230769230769232, 0.8076923076923077]], [[0.42857142857142855, 0.5714285714285714]], [[0.10526315789473684, 0.8947368421052632]], [[1.0, 0.0]], [[0.6, 0.4]], [[0.75, 0.25]], [[0.8571428571428571, 0.14285714285714285]], [[0.5, 0.5]], [[0.3, 0.7]], [[0.5, 0.5]], [[0.0, 1.0]]]}, {"children_left": [1, -1, 3, 4, -1, -1, 7, -1, -1], "children_right": [2, -1, 6, 5, -1, -1, 8, -1, -1], "feature": [6, -2, 1, 5, -2, -2, 0, -2, -2], "threshold": [14.5, -2.0, 0.8564999997615814, 53.5, -2.0, -2.0, 53.5, -2.0, -2.0], "value": [[[0.6440677966101694, 0.3559322033898305]], [[0.0, 1.0]], [[0.7037037037037037, 0.2962962962962963]], [[0.74, 0.26]], [[0.5833333333333334, 0.4166666666666667]], [[0.7894736842105263, 0.21052631578947367]], [[0.25, 0.75]], [[1.0, 0.0]], [[0.0, 1.0]]]}, {"children_left": [1, 2, 3, -1, -1, 6, -1, -1, 9, 10, -1, -1, -1], "children_right": [8, 5, 4, -1, -1, 7, -1, -1, 12, 11, -1, -1, -1], "feature": [5, 6, 5, -2, -2, 2, -2, -2, 1, 4, -2, -2, -2], "threshold": [75.5, 23.5, 71.5, -2.0, -2.0, 67.0, -2.0, -2.0, 0.859499990940094, 85.5, -2.0, -2.0, -2.0], "value": [[[0.5932203389830508, 0.4067796610169492]], [[0.6904761904761905, 0.30952380952380953]], [[0.25, 0.75]], [[0.0, 1.0]], [[1.0, 0.0]], [[0.7368421052631579, 0.2631578947368421]], [[0.696969696969697, 0.30303030303030304]], [[1.0, 0.0]], [[0.35294117647058826, 0.6470588235294118]], [[0.26666666666666666, 0.7333333333333333]], [[0.15384615384615385, 0.8461538461538461]], [[1.0, 0.0]], [[1.0, 0.0]]]}, {"children_left": [1, 2, 3, -1, -1, -1, 7, 8, -1, -1, 11, -1, -1], "children_right": [6, 5, 4, -1, -1, -1, 10, 9, -1, -1, 12, -1, -1], "feature": [6, 0, 0, -2, -2, -2, 5, 5, -2, -2, 2, -2, -2], "threshold": [23.5, 74.0, 70.5, -2.0, -2.0, -2.0, 62.0, 60.0, -2.0, -2.0, 65.4000015258789, -2.0, -2.0], "value": [[[0.5932203389830508, 0.4067796610169492]], [[0.35294117647058826, 0.6470588235294118]], [[0.42857142857142855, 0.5714285714285714]], [[0.2727272727272727, 0.7272727272727273]], [[1.0, 0.0]], [[0.0, 1.0]], [[0.6904761904761905, 0.30952380952380953]], [[0.3333333333333333, 0.6666666666666666]], [[0.4, 0.6]], [[0.0, 1.0]], [[0.8333333333333334, 0.16666666666666666]], [[0.8620689655172413, 0.13793103448275862]], [[0.0, 1.0]]]}, {"children_left": [1, -1, 3, 4, -1, -1, 7, -1, -1], "children_right": [2, -1, 6, 5, -1, -1, 8, -1, -1], "feature": [1, -2, 4, 4, -2, -2, 4, -2, -2], "threshold": [0.27000001072883606, -2.0, 81.0, 72.5, -2.0, -2.0, 85.5, -2.0, -2.0], "value": [[[0.6440677966101694, 0.3559322033898305]], [[1.0, 0.0]], [[0.6181818181818182, 0.38181818181818183]], [[0.5161290322580645, 0.4838709677419355]], [[0.6666666666666666, 0.3333333333333333]], [[0.2, 0.8]], [[0.75, 0.25]], [[0.7272727272727273, 0.2727272727272727]], [[1.0, 0.0]]]}, {"children_left": [1, 2, 3, -1, -1, 6, -1, -1, 9, 10, -1, -1, -1], "children_right": [8, 5, 4, -1, -1, 7, -1, -1, 12, 11, -1, -1, -1], "feature": [6, 2, 0, -2, -2, 2, -2, -2, 2, 2, -2, -2, -2], "threshold": [38.5, 40.79999923706055, 40.5, -2.0, -2.0, 55.150001525878906, -2.0, -2.0, 69.85000228881836, 68.75, -2.0, -2.0, -2.0], "value": [[[0.5254237288135594, 0.4745762711864407]], [[0.4222222222222222, 0.5777777777777777]], [[0.8, 0.2]], [[0.6, 0.4]], [[1.0, 0.0]], [[0.3142857142857143, 0.6857142857142857]], [[0.18181818181818182, 0.8181818181818182]], [[0.5384615384615384, 0.46153846153846156]], [[0.8571428571428571, 0.14285714285714285]], [[0.7777777777777778, 0.2222222222222222]], [[0.875, 0.125]], [[0.0, 1.0]], [[1.0, 0.0]]]}, {"children_left": [1, 2, 3, -1, -1, 6, -1, -1, 9, 10, -1, -1, -1], "children_right": [8, 5, 4, -1, -1, 7, -1, -1, 12, 11, -1, -1, -1], "feature": [2, 4, 2, -2, -2, 2, -2, -2, 3, 2, -2, -2, -2], "threshold": [59.95000076293945, 77.0, 42.099998474121094, -2.0, -2.0, 45.05000114440918, -2.0, -2.0, 45.85000038146973, 65.35000228881836, -2.0, -2.0, -2.0], "value": [[[0.5423728813559322, 0.4576271186440678]], [[0.358974358974359, 0.6410256410256411]], [[0.5263157894736842, 0.47368421052631576]], [[0.7777777777777778, 0.2222222222222222]], [[0.3, 0.7]], [[0.2, 0.8]], [[1.0, 0.0]], [[0.15789473684210525, 0.8421052631578947]], [[0.9, 0.1]], [[0.8181818181818182, 0.18181818181818182]], [[1.0, 0.0]], [[0.0, 1.0]], [[1.0, 0.0]]]}, {"children_left": [1, 2, 3, -1, -1, 6, -1, -1, 9, -1, 11, -1, -1], "children_right": [8, 5, 4, -1, -1, 7, -1, -1, 10, -1, 12, -1, -1], "feature": [0, 2, 0, -2, -2, 0, -2, -2, 2, -2, 6, -2, -2], "threshold": [86.0, 47.14999961853027, 68.0, -2.0, -2.0, 73.5, -2.0, -2.0, 57.20000076293945, -2.0, 38.5, -2.0, -2.0], "value": [[[0.4915254237288136, 0.5084745762711864]], [[0.2903225806451613, 0.7096774193548387]], [[0.5, 0.5]], [[0.42857142857142855, 0.5714285714285714]], [[1.0, 0.0]], [[0.06666666666666667, 0.9333333333333333]], [[0.25, 0.75]], [[0.0, 1.0]], [[0.7142857142857143, 0.2857142857142857]], [[1.0, 0.0]], [[0.6363636363636364, 0.36363636363636365]], [[0.5, 0.5]], [[0.875, 0.125]]]}, {"children_left": [1, 2, 3, -1, -1, -1, 7, 8, -1, -1, 11, -1, -1], "children_right": [6, 5, 4, -1, -1, -1, 10, 9, -1, -1, 12, -1, -1], "feature": [6, 0, 1, -2, -2, -2, 1, 0, -2, -2, 4, -2, -2], "threshold": [23.5, 53.5, 0.8600000143051147, -2.0, -2.0, -2.0, 0.37299999594688416, 99.5, -2.0, -2.0, 80.0, -2.0, -2.0], "value": [[[0.5084745762711864, 0.4915254237288136]], [[0.2222222222222222, 0.7777777777777778]], [[0.4, 0.6]], [[0.14285714285714285, 0.8571428571428571]], [[1.0, 0.0]], [[0.0, 1.0]], [[0.6341463414634146, 0.36585365853658536]], [[0.875, 0.125]], [[1.0, 0.0]], [[0.8181818181818182, 0.18181818181818182]], [[0.48, 0.52]], [[0.25, 0.75]], [[0.6923076923076923, 0.3076923076923077]]]}, {"children_left": [1, 2, 3, -1, -1, 6, -1, -1, 9, 10, -1, -1, -1], "children_right": [8, 5, 4, -1, -1, 7, -1, -1, 12, 11, -1, -1, -1], "feature": [0, 4, 5, -2, -2, 0, -2, -2, 1, 4, -2, -2, -2], "threshold": [98.0, 72.5, 62.0, -2.0, -2.0, 50.5, -2.0, -2.0, 0.835999995470047, 55.5, -2.0, -2.0, -2.0], "value": [[[0.6101694915254238, 0.3898305084745763]], [[0.5, 0.5]], [[0.8571428571428571, 0.14285714285714285]], [[0.5, 0.5]], [[1.0, 0.0]], [[0.4, 0.6]], [[0.7, 0.3]], [[0.2, 0.8]], [[0.7407407407407407, 0.25925925925925924]], [[0.7692307692307693, 0.23076923076923078]], [[0.5714285714285714, 0.42857142857142855]], [[0.8421052631578947, 0.15789473684210525]], [[0.0, 1.0]]]}, {"children_left": [1, 2, 3, -1, -1, 6, -1, -1, 9, 10, -1, -1, 13, -1, -1], "children_right": [8, 5, 4, -1, -1, 7, -1, -1, 12, 11, -1, -1, 14, -1, -1], "feature": [2, 2, 3, -2, -2, 0, -2, -2, 2, 3, -2, -2, 1, -2, -2], "threshold": [60.25, 40.79999923706055, 45.85000038146973, -2.0, -2.0, 71.0, -2.0, -2.0, 68.75, 45.85000038146973, -2.0, -2.0, 0.21700000017881393, -2.0, -2.0], "value": [[[0.5254237288135594, 0.4745762711864407]], [[0.4146341463414634, 0.5853658536585366]], [[0.75, 0.25]], [[0.5, 0.5]], [[0.8, 0.2]], [[0.27586206896551724, 0.7241379310344828]], [[0.1, 0.9]], [[0.3684210526315789, 0.631578947368421]], [[0.7777777777777778, 0.2222222222222222]], [[0.9230769230769231, 0.07692307692307693]], [[0.75, 0.25]], [[1.0, 0.0]], [[0.4, 0.6]], [[1.0, 0.0]], [[0.0, 1.0]]]}, {"children_left": [1, 2, -1, 4, -1, -1, -1], "children_right": [6, 3, -1, 5, -1, -1, -1], "feature": [6, 1, -2, 0, -2, -2, -2], "threshold": [37.5, 0.3710000067949295, -2.0, 74.0, -2.0, -2.0, -2.0], "value": [[[0.559322033898305, 0.4406779661016949]], [[0.49019607843137253, 0.5098039215686274]], [[0.0, 1.0]], [[0.5319148936170213, 0.46808510638297873]], [[0.68, 0.32]], [[0.36363636363636365, 0.6363636363636364]], [[1.0, 0.0]]]}, {"children_left": [1, 2, 3, -1, -1, 6, -1, -1, 9, 10, -1, -1, 13, -1, -1], "children_right": [8, 5, 4, -1, -1, 7, -1, -1, 12, 11, -1, -1, 14, -1, -1], "feature": [0, 5, 1, -2, -2, 1, -2, -2, 6, 1, -2, -2, 2, -2, -2], "threshold": [87.5, 73.5, 0.3959999978542328, -2.0, -2.0, 0.859499990940094, -2.0, -2.0, 45.5, 0.35199999809265137, -2.0, -2.0, 68.75, -2.0, -2.0], "value": [[[0.5254237288135594, 0.4745762711864407]], [[0.2727272727272727, 0.7272727272727273]], [[0.47058823529411764, 0.5294117647058824]], [[0.35714285714285715, 0.6428571428571429]], [[1.0, 0.0]], [[0.0625, 0.9375]], [[0.0, 1.0]], [[1.0, 0.0]], [[0.8461538461538461, 0.15384615384615385]], [[0.9090909090909091, 0.09090909090909091]], [[0.8, 0.2]], [[1.0, 0.0]], [[0.5, 0.5]], [[1.0, 0.0]], [[0.0, 1.0]]]}, {"children_left": [1, 2, -1, 4, -1, -1, 7, 8, -1, -1, -1], "children_right": [6, 3, -1, 5, -1, -1, 10, 9, -1, -1, -1], "feature": [2, 0, -2, 0, -2, -2, 1, 2, -2, -2, -2], "threshold": [57.89999961853027, 9.0, -2.0, 81.0, -2.0, -2.0, 0.81700000166893, 67.04999923706055, -2.0, -2.0, -2.0], "value": [[[0.4915254237288136, 0.5084745762711864]], [[0.2857142857142857, 0.7142857142857143]], [[1.0, 0.0]], [[0.21875, 0.78125]], [[0.28, 0.72]], [[0.0, 1.0]], [[0.7916666666666666, 0.20833333333333334]], [[0.6428571428571429, 0.35714285714285715]], [[0.5, 0.5]], [[1.0, 0.0]], [[1.0, 0.0]]]}, {"children_left": [1, 2, -1, 4, -1, -1, 7, -1, 9, -1, -1], "children_right": [6, 3, -1, 5, -1, -1, 8, -1, 10, -1, -1], "feature": [6, 4, -2, 2, -2, -2, 2, -2, 4, -2, -2], "threshold": [38.5, 71.0, -2.0, 38.39999961853027, -2.0, -2.0, 68.75, -2.0, 55.5, -2.0, -2.0], "value": [[[0.5423728813559322, 0.4576271186440678]], [[0.46938775510204084, 0.5306122448979592]], [[0.0, 1.0]], [[0.5227272727272727, 0.4772727272727273]], [[0.0, 1.0]], [[0.575, 0.425]], [[0.9, 0.1]], [[1.0, 0.0]], [[0.75, 0.25]], [[0.0, 1.0]], [[1.0, 0.0]]]}, {"children_left": [1, 2, 3, -1, -1, 6, -1, -1, 9, 10, -1, -1, 13, -1, -1], "children_right": [8, 5, 4, -1, -1, 7, -1, -1, 12, 11, -1, -1, 14, -1, -1], "feature": [6, 0, 6, -2, -2, 0, -2, -2, 2, 2, -2, -2, 2, -2, -2], "threshold": [25.0, 56.0, 14.5, -2.0, -2.0, 71.0, -2.0, -2.0, 65.35000228881836, 59.95000076293945, -2.0, -2.0, 67.0, -2.0, -2.0], "value": [[[0.576271186440678, 0.423728813559322]], [[0.30434782608695654, 0.6956521739130435]], [[0.7142857142857143, 0.2857142857142857]], [[0.0, 1.0]], [[0.8333333333333334, 0.16666666666666666]], [[0.125, 0.875]], [[0.0, 1.0]], [[0.2, 0.8]], [[0.75, 0.25]], [[0.8214285714285714, 0.17857142857142858]], [[0.7222222222222222, 0.2777777777777778]], [[1.0, 0.0]], [[0.5, 0.5]], [[0.0, 1.0]], [[0.6666666666666666, 0.3333333333333333]]]}, {"children_left": [1, 2, 3, -1, -1, 6, -1, -1, 9, 10, -1, -1, 13, -1, -1], "children_right": [8, 5, 4, -1, -1, 7, -1, -1, 12, 11, -1, -1, 14, -1, -1], "feature": [2, 1, 5, -2, -2, 1, -2, -2, 6, 1, -2, -2, 2, -2, -2], "threshold": [57.89999961853027, 0.8564999997615814, 62.0, -2.0, -2.0, 0.8600000143051147, -2.0, -2.0, 45.0, 0.8400000035762787, -2.0, -2.0, 68.75, -2.0, -2.0], "value": [[[0.5423728813559322, 0.4576271186440678]], [[0.4418604651162791, 0.5581395348837209]], [[0.5142857142857142, 0.4857142857142857]], [[0.25, 0.75]], [[0.5925925925925926, 0.4074074074074074]], [[0.125, 0.875]], [[0.0, 1.0]], [[1.0, 0.0]], [[0.8125, 0.1875]], [[0.8571428571428571, 0.14285714285714285]], [[0.8, 0.2]], [[1.0, 0.0]], [[0.5, 0.5]], [[1.0, 0.0]], [[0.0, 1.0]]]}, {"children_left": [1, 2, 3, -1, -1, 6, -1, -1, 9, -1, 11, -1, -1], "children_right": [8, 5, 4, -1, -1, 7, -1, -1, 10, -1, 12, -1, -1], "feature": [1, 0, 1, -2, -2, 5, -2, -2, 4, -2, 2, -2, -2], "threshold": [0.8499999940395355, 75.5, 0.3959999978542328, -2.0, -2.0, 53.5, -2.0, -2.0, 83.5, -2.0, 52.14999961853027, -2.0, -2.0], "value": [[[0.5254237288135594, 0.4745762711864407]], [[0.6666666666666666, 0.3333333333333333]], [[0.5, 0.5]], [[0.375, 0.625]], [[1.0, 0.0]], [[0.7241379310344828, 0.27586206896551724]], [[0.6666666666666666, 0.3333333333333333]], [[0.7857142857142857, 0.21428571428571427]], [[0.25, 0.75]], [[0.0, 1.0]], [[0.3125, 0.6875]], [[0.18181818181818182, 0.8181818181818182]], [[0.6, 0.4]]]}, {"children_left": [1, 2, 3, -1, -1, -1, 7, 8, -1, -1, 11, -1, -1], "children_right": [6, 5, 4, -1, -1, -1, 10, 9, -1, -1, 12, -1, -1], "feature": [6, 6, 4, -2, -2, -2, 1, 6, -2, -2, 5, -2, -2], "threshold": [21.0, 14.5, 87.5, -2.0, -2.0, -2.0, 0.27000001072883606, 45.5, -2.0, -2.0, 72.0, -2.0, -2.0], "value": [[[0.4915254237288136, 0.5084745762711864]], [[0.7272727272727273, 0.2727272727272727]], [[0.25, 0.75]], [[0.3333333333333333, 0.6666666666666666]], [[0.0, 1.0]], [[1.0, 0.0]], [[0.4375, 0.5625]], [[0.7777777777777778, 0.2222222222222222]], [[1.0, 0.0]], [[0.5, 0.5]], [[0.358974358974359, 0.6410256410256411]], [[0.30434782608695654, 0.6956521739130435]], [[0.4375, 0.5625]]]}, {"children_left": [1, 2, 3, -1, -1, -1, 7, 8, -1, -1, 11, -1, -1], "children_right": [6, 5, 4, -1, -1, -1, 10, 9, -1, -1, 12, -1, -1], "feature": [0, 5, 0, -2, -2, -2, 6, 1, -2, -2, 2, -2, -2], "threshold": [86.0, 87.0, 52.5, -2.0, -2.0, -2.0, 38.5, 0.3200000077486038, -2.0, -2.0, 64.0999984741211, -2.0, -2.0], "value": [[[0.576271186440678, 0.423728813559322]], [[0.4, 0.6]], [[0.47619047619047616, 0.5238095238095238]], [[0.7777777777777778, 0.2222222222222222]], [[0.25, 0.75]], [[0.0, 1.0]], [[0.7058823529411765, 0.29411764705882354]], [[0.6666666666666666, 0.3333333333333333]], [[0.0, 1.0]], [[0.7272727272727273, 0.2727272727272727]], [[0.8, 0.2]], [[1.0, 0.0]], [[0.7142857142857143, 0.2857142857142857]]]}, {"children_left": [1, 2, 3, -1, -1, 6, -1, -1, 9, 10, -1, -1, 13, -1, -1], "children_right": [8, 5, 4, -1, -1, 7, -1, -1, 12, 11, -1, -1, 14, -1, -1], "feature": [4, 1, 1, -2, -2, 0, -2, -2, 4, 4, -2, -2, 5, -2, -2], "threshold": [72.5, 0.27000001072883606, 0.21700000017881393, -2.0, -2.0, 54.0, -2.0, -2.0, 81.0, 75.0, -2.0, -2.0, 75.5, -2.0, -2.0], "value": [[[0.5254237288135594, 0.4745762711864407]], [[0.6896551724137931, 0.3103448275862069]], [[0.8888888888888888, 0.1111111111111111]], [[1.0, 0.0]], [[0.8, 0.2]], [[0.6, 0.4]], [[1.0, 0.0]], [[0.5, 0.5]], [[0.36666666666666664, 0.6333333333333333]], [[0.1111111111111111, 0.8888888888888888]], [[0.0, 1.0]], [[0.125, 0.875]], [[0.47619047619047616, 0.5238095238095238]], [[0.7, 0.3]], [[0.2727272727272727, 0.7272727272727273]]]}, {"children_left": [1, 2, -1, 4, -1, -1, 7, 8, -1, -1, 11, -1, -1], "children_right": [6, 3, -1, 5, -1, -1, 10, 9, -1, -1, 12, -1, -1], "feature": [2, 4, -2, 0, -2, -2, 1, 0, -2, -2, 4, -2, -2], "threshold": [40.79999923706055, 79.5, -2.0, 9.0, -2.0, -2.0, 0.8525000214576721, 75.5, -2.0, -2.0, 85.5, -2.0, -2.0], "value": [[[0.576271186440678, 0.423728813559322]], [[0.8333333333333334, 0.16666666666666666]], [[1.0, 0.0]], [[0.3333333333333333, 0.6666666666666666]], [[1.0, 0.0]], [[0.0, 1.0]], [[0.5106382978723404, 0.48936170212765956]], [[0.6, 0.4]], [[0.2, 0.8]], [[0.6666666666666666, 0.3333333333333333]], [[0.25, 0.75]], [[0.125, 0.875]], [[0.5, 0.5]]]}, {"children_left": [1, 2, -1, 4, -1, -1, 7, 8, -1, -1, 11, -1, -1], "children_right": [6, 3, -1, 5, -1, -1, 10, 9, -1, -1, 12, -1, -1], "feature": [6, 1, -2, 4, -2, -2, 4, 2, -2, -2, 2, -2, -2], "threshold": [14.5, 0.8555000126361847, -2.0, 87.5, -2.0, -2.0, 63.0, 68.75, -2.0, -2.0, 59.95000076293945, -2.0, -2.0], "value": [[[0.5254237288135594, 0.4745762711864407]], [[0.1111111111111111, 0.8888888888888888]], [[0.0, 1.0]], [[0.3333333333333333, 0.6666666666666666]], [[1.0, 0.0]], [[0.0, 1.0]], [[0.6, 0.4]], [[0.875, 0.125]], [[1.0, 0.0]], [[0.6666666666666666, 0.3333333333333333]], [[0.5476190476190477, 0.4523809523809524]], [[0.46875, 0.53125]], [[0.8, 0.2]]]}, {"children_left": [1, -1, 3, 4, -1, -1, 7, -1, -1], "children_right": [2, -1, 6, 5, -1, -1, 8, -1, -1], "feature": [6, -2, 1, 2, -2, -2, 6, -2, -2], "threshold": [12.0, -2.0, 0.8350000083446503, 41.79999923706055, -2.0, -2.0, 19.0, -2.0, -2.0], "value": [[[0.576271186440678, 0.423728813559322]], [[0.0, 1.0]], [[0.6071428571428571, 0.39285714285714285]], [[0.6842105263157895, 0.3157894736842105]], [[1.0, 0.0]], [[0.6129032258064516, 0.3870967741935484]], [[0.4444444444444444, 0.5555555555555556]], [[0.8333333333333334, 0.16666666666666666]], [[0.25, 0.75]]]}, {"children_left": [1, 2, 3, -1, -1, 6, -1, -1, 9, 10, -1, -1, -1], "children_right": [8, 5, 4, -1, -1, 7, -1, -1, 12, 11, -1, -1, -1], "feature": [4, 2, 2, -2, -2, 6, -2, -2, 1, 6, -2, -2, -2], "threshold": [83.5, 60.10000038146973, 41.79999923706055, -2.0, -2.0, 45.0, -2.0, -2.0, 0.8600000143051147, 12.0, -2.0, -2.0, -2.0], "value": [[[0.5084745762711864, 0.4915254237288136]], [[0.5853658536585366, 0.4146341463414634]], [[0.44, 0.56]], [[0.8571428571428571, 0.14285714285714285]], [[0.2777777777777778, 0.7222222222222222]], [[0.8125, 0.1875]], [[0.9285714285714286, 0.07142857142857142]], [[0.0, 1.0]], [[0.3333333333333333, 0.6666666666666666]], [[0.2, 0.8]], [[0.0, 1.0]], [[0.21428571428571427, 0.7857142857142857]], [[1.0, 0.0]]]}, {"children_left": [1, -1, 3, 4, -1, -1, 7, -1, -1], "children_right": [2, -1, 6, 5, -1, -1, 8, -1, -1], "feature": [4, -2, 1, 6, -2, -2, 1, -2, -2], "threshold": [63.0, -2.0, 0.35199999809265137, 33.5, -2.0, -2.0, 0.8505000174045563, -2.0, -2.0], "value": [[[0.5932203389830508, 0.4067796610169492]], [[1.0, 0.0]], [[0.5471698113207547, 0.4528301886792453]], [[0.16666666666666666, 0.8333333333333334]], [[0.0, 1.0]], [[0.3333333333333333, 0.6666666666666666]], [[0.5957446808510638, 0.40425531914893614]], [[0.6774193548387096, 0.3225806451612903]], [[0.4375, 0.5625]]]}, {"children_left": [1, -1, 3, 4, -1, -1, 7, -1, -1], "children_right": [2, -1, 6, 5, -1, -1, 8, -1, -1], "feature": [5, -2, 1, 1, -2, -2, 4, -2, -2], "threshold": [49.0, -2.0, 0.835999995470047, 0.35199999809265137, -2.0, -2.0, 85.5, -2.0, -2.0], "value": [[[0.5932203389830508, 0.4067796610169492]], [[0.0, 1.0]], [[0.625, 0.375]], [[0.7567567567567568, 0.24324324324324326]], [[0.5384615384615384, 0.46153846153846156]], [[0.875, 0.125]], [[0.3684210526315789, 0.631578947368421]], [[0.25, 0.75]], [[0.5714285714285714, 0.42857142857142855]]]}, {"children_left": [1, 2, -1, 4, -1, -1, 7, -1, 9, -1, -1], "children_right": [6, 3, -1, 5, -1, -1, 8, -1, 10, -1, -1], "feature": [0, 2, -2, 1, -2, -2, 4, -2, 5, -2, -2], "threshold": [70.0, 35.5, -2.0, 0.8600000143051147, -2.0, -2.0, 63.0, -2.0, 53.5, -2.0, -2.0], "value": [[[0.559322033898305, 0.4406779661016949]], [[0.25, 0.75]], [[1.0, 0.0]], [[0.07692307692307693, 0.9230769230769231]], [[0.0, 1.0]], [[1.0, 0.0]], [[0.6744186046511628, 0.32558139534883723]], [[1.0, 0.0]], [[0.6216216216216216, 0.3783783783783784]], [[0.25, 0.75]], [[0.7241379310344828, 0.27586206896551724]]]}, {"children_left": [1, 2, 3, -1, -1, 6, -1, -1, 9, 10, -1, -1, 13, -1, -1], "children_right": [8, 5, 4, -1, -1, 7, -1, -1, 12, 11, -1, -1, 14, -1, -1], "feature": [1, 1, 2, -2, -2, 1, -2, -2, 4, 4, -2, -2, 6, -2, -2], "threshold": [0.8505000174045563, 0.8030000030994415, 65.35000228881836, -2.0, -2.0, 0.8350000083446503, -2.0, -2.0, 85.5, 83.5, -2.0, -2.0, 14.5, -2.0, -2.0], "value": [[[0.6610169491525424, 0.3389830508474576]], [[0.7083333333333334, 0.2916666666666667]], [[0.6060606060606061, 0.3939393939393939]], [[0.68, 0.32]], [[0.375, 0.625]], [[0.9333333333333333, 0.06666666666666667]], [[1.0, 0.0]], [[0.875, 0.125]], [[0.45454545454545453, 0.5454545454545454]], [[0.16666666666666666, 0.8333333333333334]], [[0.0, 1.0]], [[0.2, 0.8]], [[0.8, 0.2]], [[0.6666666666666666, 0.3333333333333333]], [[1.0, 0.0]]]}, {"children_left": [1, 2, 3, -1, -1, 6, -1, -1, 9, 10, -1, -1, -1], "children_right": [8, 5, 4, -1, -1, 7, -1, -1, 12, 11, -1, -1, -1], "feature": [4, 5, 1, -2, -2, 1, -2, -2, 1, 4, -2, -2, -2], "threshold": [83.5, 62.0, 0.30650000274181366, -2.0, -2.0, 0.8434999883174896, -2.0, -2.0, 0.8564999997615814, 85.5, -2.0, -2.0, -2.0], "value": [[[0.576271186440678, 0.423728813559322]], [[0.6739130434782609, 0.32608695652173914]], [[0.55, 0.45]], [[0.8181818181818182, 0.18181818181818182]], [[0.2222222222222222, 0.7777777777777778]], [[0.7692307692307693, 0.23076923076923078]], [[0.9, 0.1]], [[0.3333333333333333, 0.6666666666666666]], [[0.23076923076923078, 0.7692307692307693]], [[0.5, 0.5]], [[0.3333333333333333, 0.6666666666666666]], [[0.6666666666666666, 0.3333333333333333]], [[0.0, 1.0]]]}, {"children_left": [1, 2, 3, -1, -1, -1, -1], "children_right": [6, 5, 4, -1, -1, -1, -1], "feature": [5, 1, 4, -2, -2, -2, -2], "threshold": [75.5, 0.8505000174045563, 80.0, -2.0, -2.0, -2.0, -2.0], "value": [[[0.5932203389830508, 0.4067796610169492]], [[0.6481481481481481, 0.35185185185185186]], [[0.6862745098039216, 0.3137254901960784]], [[0.6052631578947368, 0.39473684210526316]], [[0.9230769230769231, 0.07692307692307693]], [[0.0, 1.0]], [[0.0, 1.0]]]}, {"children_left": [1, 2, 3, -1, -1, -1, 7, 8, -1, -1, 11, -1, -1], "children_right": [6, 5, 4, -1, -1, -1, 10, 9, -1, -1, 12, -1, -1], "feature": [0, 4, 4, -2, -2, -2, 0, 2, -2, -2, 1, -2, -2], "threshold": [53.0, 87.5, 81.0, -2.0, -2.0, -2.0, 87.5, 52.89999961853027, -2.0, -2.0, 0.27000001072883606, -2.0, -2.0], "value": [[[0.576271186440678, 0.423728813559322]], [[0.8461538461538461, 0.15384615384615385]], [[0.9166666666666666, 0.08333333333333333]], [[1.0, 0.0]], [[0.6666666666666666, 0.3333333333333333]], [[0.0, 1.0]], [[0.5, 0.5]], [[0.2, 0.8]], [[0.3, 0.7]], [[0.0, 1.0]], [[0.6451612903225806, 0.3548387096774194]], [[0.8888888888888888, 0.1111111111111111]], [[0.5454545454545454, 0.45454545454545453]]]}, {"children_left": [1, 2, 3, -1, -1, 6, -1, -1, 9, 10, -1, -1, -1], "children_right": [8, 5, 4, -1, -1, 7, -1, -1, 12, 11, -1, -1, -1], "feature": [1, 5, 4, -2, -2, 4, -2, -2, 1, 0, -2, -2, -2], "threshold": [0.8384999930858612, 69.0, 72.5, -2.0, -2.0, 80.0, -2.0, -2.0, 0.8600000143051147, 71.0, -2.0, -2.0, -2.0], "value": [[[0.559322033898305, 0.4406779661016949]], [[0.725, 0.275]], [[0.6428571428571429, 0.35714285714285715]], [[0.72, 0.28]], [[0.0, 1.0]], [[0.9166666666666666, 0.08333333333333333]], [[0.8333333333333334, 0.16666666666666666]], [[1.0, 0.0]], [[0.21052631578947367, 0.7894736842105263]], [[0.16666666666666666, 0.8333333333333334]], [[0.0, 1.0]], [[0.23076923076923078, 0.7692307692307693]], [[1.0, 0.0]]]}, {"children_left": [1, 2, 3, -1, -1, 6, -1, -1, 9, 10, -1, -1, -1], "children_right": [8, 5, 4, -1, -1, 7, -1, -1, 12, 11, -1, -1, -1], "feature": [1, 2, 6, -2, -2, 6, -2, -2, 1, 1, -2, -2, -2], "threshold": [0.8505000174045563, 48.85000038146973, 26.0, -2.0, -2.0, 45.5, -2.0, -2.0, 0.8600000143051147, 0.8564999997615814, -2.0, -2.0, -2.0], "value": [[[0.5423728813559322, 0.4576271186440678]], [[0.6904761904761905, 0.30952380952380953]], [[0.125, 0.875]], [[0.0, 1.0]], [[1.0, 0.0]], [[0.8235294117647058, 0.17647058823529413]], [[0.8709677419354839, 0.12903225806451613]], [[0.3333333333333333, 0.6666666666666666]], [[0.17647058823529413, 0.8235294117647058]], [[0.125, 0.875]], [[0.25, 0.75]], [[0.0, 1.0]], [[1.0, 0.0]]]}, {"children_left": [1, 2, 3, -1, -1, 6, -1, -1, 9, -1, 11, -1, -1], "children_right": [8, 5, 4, -1, -1, 7, -1, -1, 10, -1, 12, -1, -1], "feature": [5, 4, 5, -2, -2, 5, -2, -2, 1, -2, 1, -2, -2], "threshold": [75.5, 63.0, 49.0, -2.0, -2.0, 62.0, -2.0, -2.0, 0.8555000126361847, -2.0, 0.8564999997615814, -2.0, -2.0], "value": [[[0.5254237288135594, 0.4745762711864407]], [[0.5777777777777777, 0.4222222222222222]], [[0.875, 0.125]], [[0.5, 0.5]], [[1.0, 0.0]], [[0.5135135135135135, 0.4864864864864865]], [[0.375, 0.625]], [[0.6190476190476191, 0.38095238095238093]], [[0.35714285714285715, 0.6428571428571429]], [[0.0, 1.0]], [[0.625, 0.375]], [[0.8333333333333334, 0.16666666666666666]], [[0.0, 1.0]]]}, {"children_left": [1, 2, 3, -1, -1, 6, -1, -1, 9, 10, -1, -1, -1], "children_right": [8, 5, 4, -1, -1, 7, -1, -1, 12, 11, -1, -1, -1], "feature": [1, 0, 0, -2, -2, 2, -2, -2, 2, 1, -2, -2, -2], "threshold": [0.8490000069141388, 97.5, 27.5, -2.0, -2.0, 67.04999923706055, -2.0, -2.0, 52.849998474121094, 0.8600000143051147, -2.0, -2.0, -2.0], "value": [[[0.559322033898305, 0.4406779661016949]], [[0.6511627906976745, 0.3488372093023256]], [[0.5, 0.5]], [[1.0, 0.0]], [[0.4, 0.6]], [[0.7096774193548387, 0.2903225806451613]], [[0.6538461538461539, 0.34615384615384615]], [[1.0, 0.0]], [[0.3125, 0.6875]], [[0.5, 0.5]], [[0.2857142857142857, 0.7142857142857143]], [[1.0, 0.0]], [[0.0, 1.0]]]}, {"children_left": [1, 2, 3, -1, -1, 6, -1, -1, 9, 10, -1, -1, -1], "children_right": [8, 5, 4, -1, -1, 7, -1, -1, 12, 11, -1, -1, -1], "feature": [1, 1, 1, -2, -2, 2, -2, -2, 1, 1, -2, -2, -2], "threshold": [0.8350000083446503, 0.2280000001192093, 0.21700000017881393, -2.0, -2.0, 65.35000228881836, -2.0, -2.0, 0.859499990940094, 0.8505000174045563, -2.0, -2.0, -2.0], "value": [[[0.559322033898305, 0.4406779661016949]], [[0.7142857142857143, 0.2857142857142857]], [[0.25, 0.75]], [[1.0, 0.0]], [[0.0, 1.0]], [[0.7741935483870968, 0.22580645161290322]], [[0.8214285714285714, 0.17857142857142858]], [[0.3333333333333333, 0.6666666666666666]], [[0.3333333333333333, 0.6666666666666666]], [[0.2, 0.8]], [[0.42857142857142855, 0.5714285714285714]], [[0.07692307692307693, 0.9230769230769231]], [[1.0, 0.0]]]}, {"children_left": [1, 2, 3, -1, -1, -1, 7, 8, -1, -1, 11, -1, -1], "children_right": [6, 5, 4, -1, -1, -1, 10, 9, -1, -1, 12, -1, -1], "feature": [4, 6, 1, -2, -2, -2, 6, 5, -2, -2, 0, -2, -2], "threshold": [71.0, 30.5, 0.36900000274181366, -2.0, -2.0, -2.0, 25.0, 62.0, -2.0, -2.0, 95.0, -2.0, -2.0], "value": [[[0.6271186440677966, 0.3728813559322034]], [[0.9333333333333333, 0.06666666666666667]], [[0.75, 0.25]], [[0.0, 1.0]], [[1.0, 0.0]], [[1.0, 0.0]], [[0.5227272727272727, 0.4772727272727273]], [[0.4444444444444444, 0.5555555555555556]], [[0.1111111111111111, 0.8888888888888888]], [[0.6111111111111112, 0.3888888888888889]], [[0.6470588235294118, 0.35294117647058826]], [[1.0, 0.0]], [[0.5384615384615384, 0.46153846153846156]]]}, {"children_left": [1, 2, 3, -1, -1, 6, -1, -1, 9, 10, -1, -1, 13, -1, -1], "children_right": [8, 5, 4, -1, -1, 7, -1, -1, 12, 11, -1, -1, 14, -1, -1], "feature": [0, 1, 0, -2, -2, 2, -2, -2, 1, 5, -2, -2, 0, -2, -2], "threshold": [53.0, 0.6284999847412109, 40.5, -2.0, -2.0, 38.95000076293945, -2.0, -2.0, 0.8499999940395355, 49.0, -2.0, -2.0, 73.5, -2.0, -2.0], "value": [[[0.4576271186440678, 0.5423728813559322]], [[0.6842105263157895, 0.3157894736842105]], [[0.8181818181818182, 0.18181818181818182]], [[0.6, 0.4]], [[1.0, 0.0]], [[0.5, 0.5]], [[0.0, 1.0]], [[0.8, 0.2]], [[0.35, 0.65]], [[0.52, 0.48]], [[0.0, 1.0]], [[0.5652173913043478, 0.43478260869565216]], [[0.06666666666666667, 0.9333333333333333]], [[0.14285714285714285, 0.8571428571428571]], [[0.0, 1.0]]]}, {"children_left": [1, 2, 3, -1, -1, -1, 7, 8, -1, -1, 11, -1, -1], "children_right": [6, 5, 4, -1, -1, -1, 10, 9, -1, -1, 12, -1, -1], "feature": [0, 2, 6, -2, -2, -2, 6, 1, -2, -2, 1, -2, -2], "threshold": [53.0, 37.5, 26.0, -2.0, -2.0, -2.0, 25.0, 0.8555000126361847, -2.0, -2.0, 0.8505000174045563, -2.0, -2.0], "value": [[[0.6779661016949152, 0.3220338983050847]], [[0.9230769230769231, 0.07692307692307693]], [[0.5, 0.5]], [[0.0, 1.0]], [[1.0, 0.0]], [[1.0, 0.0]], [[0.6086956521739131, 0.391304347826087]], [[0.2857142857142857, 0.7142857142857143]], [[0.0, 1.0]], [[0.4444444444444444, 0.5555555555555556]], [[0.75, 0.25]], [[0.8, 0.2]], [[0.0, 1.0]]]}, {"children_left": [1, 2, 3, -1, -1, 6, -1, -1, 9, 10, -1, -1, -1], "children_right": [8, 5, 4, -1, -1, 7, -1, -1, 12, 11, -1, -1, -1], "feature": [1, 4, 2, -2, -2, 4, -2, -2, 0, 4, -2, -2, -2], "threshold": [0.8505000174045563, 64.5, 64.39999771118164, -2.0, -2.0, 67.5, -2.0, -2.0, 73.5, 85.5, -2.0, -2.0, -2.0], "value": [[[0.6440677966101694, 0.3559322033898305]], [[0.75, 0.25]], [[0.8666666666666667, 0.13333333333333333]], [[0.7142857142857143, 0.2857142857142857]], [[1.0, 0.0]], [[0.696969696969697, 0.30303030303030304]], [[0.0, 1.0]], [[0.71875, 0.28125]], [[0.18181818181818182, 0.8181818181818182]], [[0.3333333333333333, 0.6666666666666666]], [[0.3333333333333333, 0.6666666666666666]], [[0.3333333333333333, 0.6666666666666666]], [[0.0, 1.0]]]}, {"children_left": [1, 2, 3, -1, -1, -1, 7, 8, -1, -1, 11, -1, -1], "children_right": [6, 5, 4, -1, -1, -1, 10, 9, -1, -1, 12, -1, -1], "feature": [0, 2, 4, -2, -2, -2, 4, 1, -2, -2, 2, -2, -2], "threshold": [82.0, 45.89999961853027, 74.0, -2.0, -2.0, -2.0, 80.0, 0.27000001072883606, -2.0, -2.0, 57.89999961853027, -2.0, -2.0], "value": [[[0.5932203389830508, 0.4067796610169492]], [[0.44, 0.56]], [[0.5789473684210527, 0.42105263157894735]], [[0.3, 0.7]], [[0.8888888888888888, 0.1111111111111111]], [[0.0, 1.0]], [[0.7058823529411765, 0.29411764705882354]], [[0.625, 0.375]], [[1.0, 0.0]], [[0.5263157894736842, 0.47368421052631576]], [[0.9, 0.1]], [[0.75, 0.25]], [[1.0, 0.0]]]}, {"children_left": [1, 2, 3, -1, -1, 6, -1, -1, 9, -1, 11, -1, -1], "children_right": [8, 5, 4, -1, -1, 7, -1, -1, 10, -1, 12, -1, -1], "feature": [2, 4, 0, -2, -2, 5, -2, -2, 0, -2, 6, -2, -2], "threshold": [57.89999961853027, 72.5, 54.0, -2.0, -2.0, 80.5, -2.0, -2.0, 99.0, -2.0, 38.5, -2.0, -2.0], "value": [[[0.5084745762711864, 0.4915254237288136]], [[0.38461538461538464, 0.6153846153846154]], [[0.55, 0.45]], [[1.0, 0.0]], [[0.4375, 0.5625]], [[0.21052631578947367, 0.7894736842105263]], [[0.13333333333333333, 0.8666666666666667]], [[0.5, 0.5]], [[0.75, 0.25]], [[1.0, 0.0]], [[0.6875, 0.3125]], [[0.25, 0.75]], [[0.8333333333333334, 0.16666666666666666]]]}, {"children_left": [1, 2, 3, -1, -1, 6, -1, -1, 9, 10, -1, -1, -1], "children_right": [8, 5, 4, -1, -1, 7, -1, -1, 12, 11, -1, -1, -1], "feature": [2, 0, 2, -2, -2, 4, -2, -2, 1, 1, -2, -2, -2], "threshold": [59.95000076293945, 50.5, 38.95000076293945, -2.0, -2.0, 83.5, -2.0, -2.0, 0.8030000030994415, 0.2510000094771385, -2.0, -2.0, -2.0], "value": [[[0.4915254237288136, 0.5084745762711864]], [[0.3953488372093023, 0.6046511627906976]], [[0.8, 0.2]], [[0.6666666666666666, 0.3333333333333333]], [[1.0, 0.0]], [[0.2727272727272727, 0.7272727272727273]], [[0.36363636363636365, 0.6363636363636364]], [[0.09090909090909091, 0.9090909090909091]], [[0.75, 0.25]], [[0.5555555555555556, 0.4444444444444444]], [[1.0, 0.0]], [[0.2, 0.8]], [[1.0, 0.0]]]}, {"children_left": [1, 2, 3, -1, -1, 6, -1, -1, -1], "children_right": [8, 5, 4, -1, -1, 7, -1, -1, -1], "feature": [6, 0, 2, -2, -2, 6, -2, -2, -2], "threshold": [38.5, 54.0, 38.95000076293945, -2.0, -2.0, 27.0, -2.0, -2.0, -2.0], "value": [[[0.423728813559322, 0.576271186440678]], [[0.3584905660377358, 0.6415094339622641]], [[0.5384615384615384, 0.46153846153846156]], [[0.25, 0.75]], [[1.0, 0.0]], [[0.3, 0.7]], [[0.22580645161290322, 0.7741935483870968]], [[0.5555555555555556, 0.4444444444444444]], [[1.0, 0.0]]]}, {"children_left": [1, -1, 3, 4, -1, -1, 7, -1, -1], "children_right": [2, -1, 6, 5, -1, -1, 8, -1, -1], "feature": [5, -2, 2, 5, -2, -2, 6, -2, -2], "threshold": [49.0, -2.0, 55.89999961853027, 64.0, -2.0, -2.0, 29.5, -2.0, -2.0], "value": [[[0.5254237288135594, 0.4745762711864407]], [[1.0, 0.0]], [[0.5087719298245614, 0.49122807017543857]], [[0.43902439024390244, 0.5609756097560976]], [[0.5238095238095238, 0.47619047619047616]], [[0.35, 0.65]], [[0.6875, 0.3125]], [[0.9, 0.1]], [[0.3333333333333333, 0.6666666666666666]]]}, {"children_left": [1, 2, 3, -1, -1, 6, -1, -1, 9, -1, 11, -1, -1], "children_right": [8, 5, 4, -1, -1, 7, -1, -1, 10, -1, 12, -1, -1], "feature": [4, 6, 5, -2, -2, 4, -2, -2, 2, -2, 0, -2, -2], "threshold": [83.5, 28.5, 71.5, -2.0, -2.0, 67.5, -2.0, -2.0, 38.95000076293945, -2.0, 50.5, -2.0, -2.0], "value": [[[0.5084745762711864, 0.4915254237288136]], [[0.6052631578947368, 0.39473684210526316]], [[0.7777777777777778, 0.2222222222222222]], [[0.5714285714285714, 0.42857142857142855]], [[0.9090909090909091, 0.09090909090909091]], [[0.45, 0.55]], [[0.6153846153846154, 0.38461538461538464]], [[0.14285714285714285, 0.8571428571428571]], [[0.3333333333333333, 0.6666666666666666]], [[0.0, 1.0]], [[0.4117647058823529, 0.5882352941176471]], [[0.8, 0.2]], [[0.25, 0.75]]]}, {"children_left": [1, 2, 3, -1, -1, -1, 7, 8, -1, -1, 11, -1, -1], "children_right": [6, 5, 4, -1, -1, -1, 10, 9, -1, -1, 12, -1, -1], "feature": [0, 0, 2, -2, -2, -2, 6, 1, -2, -2, 1, -2, -2], "threshold": [87.5, 50.5, 43.39999961853027, -2.0, -2.0, -2.0, 29.0, 0.835999995470047, -2.0, -2.0, 0.27000001072883606, -2.0, -2.0], "value": [[[0.4915254237288136, 0.5084745762711864]], [[0.16, 0.84]], [[0.4444444444444444, 0.5555555555555556]], [[0.2857142857142857, 0.7142857142857143]], [[1.0, 0.0]], [[0.0, 1.0]], [[0.7352941176470589, 0.2647058823529412]], [[0.9230769230769231, 0.07692307692307693]], [[1.0, 0.0]], [[0.8333333333333334, 0.16666666666666666]], [[0.6190476190476191, 0.38095238095238093]], [[1.0, 0.0]], [[0.42857142857142855, 0.5714285714285714]]]}, {"children_left": [1, -1, 3, 4, -1, -1, 7, -1, -1], "children_right": [2, -1, 6, 5, -1, -1, 8, -1, -1], "feature": [1, -2, 4, 4, -2, -2, 2, -2, -2], "threshold": [0.30650000274181366, -2.0, 80.0, 72.5, -2.0, -2.0, 55.69999885559082, -2.0, -2.0], "value": [[[0.5423728813559322, 0.4576271186440678]], [[1.0, 0.0]], [[0.4807692307692308, 0.5192307692307693]], [[0.30434782608695654, 0.6956521739130435]], [[0.35294117647058826, 0.6470588235294118]], [[0.16666666666666666, 0.8333333333333334]], [[0.6206896551724138, 0.3793103448275862]], [[0.23076923076923078, 0.7692307692307693]], [[0.9375, 0.0625]]]}, {"children_left": [1, 2, 3, -1, -1, 6, -1, -1, 9, 10, -1, -1, -1], "children_right": [8, 5, 4, -1, -1, 7, -1, -1, 12, 11, -1, -1, -1], "feature": [1, 6, 4, -2, -2, 6, -2, -2, 2, 5, -2, -2, -2], "threshold": [0.8505000174045563, 38.5, 80.0, -2.0, -2.0, 45.0, -2.0, -2.0, 53.05000114440918, 91.5, -2.0, -2.0, -2.0], "value": [[[0.5084745762711864, 0.4915254237288136]], [[0.6341463414634146, 0.36585365853658536]], [[0.5483870967741935, 0.45161290322580644]], [[0.5, 0.5]], [[0.6666666666666666, 0.3333333333333333]], [[0.9, 0.1]], [[0.8571428571428571, 0.14285714285714285]], [[1.0, 0.0]], [[0.2222222222222222, 0.7777777777777778]], [[0.36363636363636365, 0.6363636363636364]], [[0.2857142857142857, 0.7142857142857143]], [[0.5, 0.5]], [[0.0, 1.0]]]}, {"children_left": [1, 2, -1, 4, -1, -1, 7, -1, 9, -1, -1], "children_right": [6, 3, -1, 5, -1, -1, 8, -1, 10, -1, -1], "feature": [2, 0, -2, 1, -2, -2, 6, -2, 1, -2, -2], "threshold": [67.04999923706055, 9.0, -2.0, 0.8564999997615814, -2.0, -2.0, 45.5, -2.0, 0.2280000001192093, -2.0, -2.0], "value": [[[0.576271186440678, 0.423728813559322]], [[0.5, 0.5]], [[1.0, 0.0]], [[0.45454545454545453, 0.5454545454545454]], [[0.5, 0.5]], [[0.0, 1.0]], [[0.9090909090909091, 0.09090909090909091]], [[1.0, 0.0]], [[0.875, 0.125]], [[0.0, 1.0]], [[1.0, 0.0]]]}, {"children_left": [1, 2, 3, -1, -1, 6, -1, -1, -1], "children_right": [8, 5, 4, -1, -1, 7, -1, -1, -1], "feature": [4, 1, 5, -2, -2, 5, -2, -2, -2], "threshold": [87.5, 0.3245000094175339, 49.0, -2.0, -2.0, 75.5, -2.0, -2.0, -2.0], "value": [[[0.6610169491525424, 0.3389830508474576]], [[0.6842105263157895, 0.3157894736842105]], [[0.45454545454545453, 0.5454545454545454]], [[0.6666666666666666, 0.3333333333333333]], [[0.375, 0.625]], [[0.7391304347826086, 0.2608695652173913]], [[0.7878787878787878, 0.21212121212121213]], [[0.6153846153846154, 0.38461538461538464]], [[0.0, 1.0]]]}, {"children_left": [1, 2, -1, 4, -1, -1, 7, 8, -1, -1, 11, -1, -1], "children_right": [6, 3, -1, 5, -1, -1, 10, 9, -1, -1, 12, -1, -1], "feature": [2, 1, -2, 2, -2, -2, 4, 1, -2, -2, 6, -2, -2], "threshold": [55.69999885559082, 0.35199999809265137, -2.0, 49.45000076293945, -2.0, -2.0, 63.0, 0.27000001072883606, -2.0, -2.0, 29.5, -2.0, -2.0], "value": [[[0.576271186440678, 0.423728813559322]], [[0.41935483870967744, 0.5806451612903226]], [[0.0, 1.0]], [[0.48148148148148145, 0.5185185185185185]], [[0.7058823529411765, 0.29411764705882354]], [[0.1, 0.9]], [[0.75, 0.25]], [[0.9, 0.1]], [[1.0, 0.0]], [[0.8, 0.2]], [[0.6666666666666666, 0.3333333333333333]], [[0.7777777777777778, 0.2222222222222222]], [[0.5555555555555556, 0.4444444444444444]]]}, {"children_left": [1, 2, 3, -1, -1, -1, 7, 8, -1, -1, 11, -1, -1], "children_right": [6, 5, 4, -1, -1, -1, 10, 9, -1, -1, 12, -1, -1], "feature": [0, 0, 6, -2, -2, -2, 5, 2, -2, -2, 6, -2, -2], "threshold": [86.0, 53.0, 14.5, -2.0, -2.0, -2.0, 49.0, 68.75, -2.0, -2.0, 29.0, -2.0, -2.0], "value": [[[0.4745762711864407, 0.5254237288135594]], [[0.25925925925925924, 0.7407407407407407]], [[0.5, 0.5]], [[0.0, 1.0]], [[0.875, 0.125]], [[0.0, 1.0]], [[0.65625, 0.34375]], [[0.5, 0.5]], [[1.0, 0.0]], [[0.0, 1.0]], [[0.6785714285714286, 0.32142857142857145]], [[0.8571428571428571, 0.14285714285714285]], [[0.5, 0.5]]]}, {"children_left": [1, 2, 3, -1, -1, 6, -1, -1, 9, -1, 11, -1, -1], "children_right": [8, 5, 4, -1, -1, 7, -1, -1, 10, -1, 12, -1, -1], "feature": [2, 5, 6, -2, -2, 1, -2, -2, 2, -2, 2, -2, -2], "threshold": [60.10000038146973, 75.5, 21.5, -2.0, -2.0, 0.8600000143051147, -2.0, -2.0, 65.35000228881836, -2.0, 67.04999923706055, -2.0, -2.0], "value": [[[0.4576271186440678, 0.5423728813559322]], [[0.34210526315789475, 0.6578947368421053]], [[0.44, 0.56]], [[1.0, 0.0]], [[0.391304347826087, 0.6086956521739131]], [[0.15384615384615385, 0.8461538461538461]], [[0.08333333333333333, 0.9166666666666666]], [[1.0, 0.0]], [[0.6666666666666666, 0.3333333333333333]], [[1.0, 0.0]], [[0.36363636363636365, 0.6363636363636364]], [[0.0, 1.0]], [[0.5714285714285714, 0.42857142857142855]]]}, {"children_left": [1, 2, 3, -1, -1, 6, -1, -1, 9, -1, 11, -1, -1], "children_right": [8, 5, 4, -1, -1, 7, -1, -1, 10, -1, 12, -1, -1], "feature": [2, 0, 4, -2, -2, 5, -2, -2, 5, -2, 1, -2, -2], "threshold": [59.70000076293945, 51.5, 87.5, -2.0, -2.0, 75.5, -2.0, -2.0, 63.0, -2.0, 0.8009999990463257, -2.0, -2.0], "value": [[[0.5254237288135594, 0.4745762711864407]], [[0.3902439024390244, 0.6097560975609756]], [[0.7272727272727273, 0.2727272727272727]], [[0.8, 0.2]], [[0.0, 1.0]], [[0.26666666666666666, 0.7333333333333333]], [[0.4, 0.6]], [[0.0, 1.0]], [[0.8333333333333334, 0.16666666666666666]], [[1.0, 0.0]], [[0.75, 0.25]], [[0.0, 1.0]], [[0.9, 0.1]]]}, {"children_left": [1, 2, -1, 4, -1, -1, 7, 8, -1, -1, -1], "children_right": [6, 3, -1, 5, -1, -1, 10, 9, -1, -1, -1], "feature": [6, 5, -2, 0, -2, -2, 6, 2, -2, -2, -2], "threshold": [25.0, 62.0, -2.0, 74.0, -2.0, -2.0, 42.5, 65.35000228881836, -2.0, -2.0, -2.0], "value": [[[0.5932203389830508, 0.4067796610169492]], [[0.34782608695652173, 0.6521739130434783]], [[0.0, 1.0]], [[0.5, 0.5]], [[0.6666666666666666, 0.3333333333333333]], [[0.0, 1.0]], [[0.75, 0.25]], [[0.7, 0.3]], [[0.7777777777777778, 0.2222222222222222]], [[0.0, 1.0]], [[1.0, 0.0]]]}, {"children_left": [1, 2, 3, -1, -1, 6, -1, -1, 9, 10, -1, -1, -1], "children_right": [8, 5, 4, -1, -1, 7, -1, -1, 12, 11, -1, -1, -1], "feature": [1, 1, 0, -2, -2, 2, -2, -2, 2, 5, -2, -2, -2], "threshold": [0.8499999940395355, 0.8030000030994415, 72.5, -2.0, -2.0, 60.10000038146973, -2.0, -2.0, 52.80000114440918, 87.0, -2.0, -2.0, -2.0], "value": [[[0.6101694915254238, 0.3898305084745763]], [[0.723404255319149, 0.2765957446808511]], [[0.6470588235294118, 0.35294117647058826]], [[0.8333333333333334, 0.16666666666666666]], [[0.5454545454545454, 0.45454545454545453]], [[0.9230769230769231, 0.07692307692307693]], [[0.8, 0.2]], [[1.0, 0.0]], [[0.16666666666666666, 0.8333333333333334]], [[0.3333333333333333, 0.6666666666666666]], [[0.4, 0.6]], [[0.0, 1.0]], [[0.0, 1.0]]]}, {"children_left": [1, 2, 3, -1, -1, 6, -1, -1, -1], "children_right": [8, 5, 4, -1, -1, 7, -1, -1, -1], "feature": [1, 1, 1, -2, -2, 1, -2, -2, -2], "threshold": [0.8525000214576721, 0.3959999978542328, 0.30650000274181366, -2.0, -2.0, 0.8400000035762787, -2.0, -2.0, -2.0], "value": [[[0.4406779661016949, 0.559322033898305]], [[0.5909090909090909, 0.4090909090909091]], [[0.4, 0.6]], [[0.8888888888888888, 0.1111111111111111]], [[0.125, 0.875]], [[0.8421052631578947, 0.15789473684210525]], [[0.7857142857142857, 0.21428571428571427]], [[1.0, 0.0]], [[0.0, 1.0]]]}, {"children_left": [1, 2, -1, 4, -1, -1, 7, 8, -1, -1, 11, -1, -1], "children_right": [6, 3, -1, 5, -1, -1, 10, 9, -1, -1, 12, -1, -1], "feature": [5, 0, -2, 2, -2, -2, 4, 0, -2, -2, 5, -2, -2], "threshold": [58.0, 99.5, -2.0, 64.0999984741211, -2.0, -2.0, 83.5, 40.5, -2.0, -2.0, 91.5, -2.0, -2.0], "value": [[[0.4915254237288136, 0.5084745762711864]], [[0.7894736842105263, 0.21052631578947367]], [[1.0, 0.0]], [[0.7333333333333333, 0.26666666666666666]], [[0.9, 0.1]], [[0.4, 0.6]], [[0.35, 0.65]], [[0.4444444444444444, 0.5555555555555556]], [[0.125, 0.875]], [[0.5789473684210527, 0.42105263157894735]], [[0.15384615384615385, 0.8461538461538461]], [[0.09090909090909091, 0.9090909090909091]], [[0.5, 0.5]]]}, {"children_left": [1, 2, 3, -1, -1, -1, 7, 8, -1, -1, 11, -1, -1], "children_right": [6, 5, 4, -1, -1, -1, 10, 9, -1, -1, 12, -1, -1], "feature": [5, 2, 1, -2, -2, -2, 4, 2, -2, -2, 4, -2, -2], "threshold": [62.0, 69.95000076293945, 0.3245000094175339, -2.0, -2.0, -2.0, 83.5, 65.35000228881836, -2.0, -2.0, 85.5, -2.0, -2.0], "value": [[[0.4915254237288136, 0.5084745762711864]], [[0.25, 0.75]], [[0.2, 0.8]], [[0.1111111111111111, 0.8888888888888888]], [[0.3333333333333333, 0.6666666666666666]], [[1.0, 0.0]], [[0.5813953488372093, 0.4186046511627907]], [[0.6764705882352942, 0.3235294117647059]], [[0.71875, 0.28125]], [[0.0, 1.0]], [[0.2222222222222222, 0.7777777777777778]], [[0.0, 1.0]], [[0.6666666666666666, 0.3333333333333333]]]}, {"children_left": [1, 2, -1, 4, -1, -1, 7, 8, -1, -1, -1], "children_right": [6, 3, -1, 5, -1, -1, 10, 9, -1, -1, -1], "feature": [2, 1, -2, 4, -2, -2, 6, 3, -2, -2, -2], "threshold": [60.10000038146973, 0.33799999952316284, -2.0, 85.5, -2.0, -2.0, 42.5, 45.85000038146973, -2.0, -2.0, -2.0], "value": [[[0.576271186440678, 0.423728813559322]], [[0.4523809523809524, 0.5476190476190477]], [[1.0, 0.0]], [[0.41025641025641024, 0.5897435897435898]], [[0.34375, 0.65625]], [[0.7142857142857143, 0.2857142857142857]], [[0.8823529411764706, 0.11764705882352941]], [[0.8181818181818182, 0.18181818181818182]], [[0.8571428571428571, 0.14285714285714285]], [[0.75, 0.25]], [[1.0, 0.0]]]}, {"children_left": [1, 2, 3, -1, -1, -1, 7, 8, -1, -1, 11, -1, -1], "children_right": [6, 5, 4, -1, -1, -1, 10, 9, -1, -1, 12, -1, -1], "feature": [0, 6, 0, -2, -2, -2, 4, 4, -2, -2, 2, -2, -2], "threshold": [86.0, 28.5, 73.5, -2.0, -2.0, -2.0, 80.0, 63.0, -2.0, -2.0, 57.89999961853027, -2.0, -2.0], "value": [[[0.6101694915254238, 0.3898305084745763]], [[0.39285714285714285, 0.6071428571428571]], [[0.4230769230769231, 0.5769230769230769]], [[0.5263157894736842, 0.47368421052631576]], [[0.14285714285714285, 0.8571428571428571]], [[0.0, 1.0]], [[0.8064516129032258, 0.1935483870967742]], [[0.6875, 0.3125]], [[1.0, 0.0]], [[0.375, 0.625]], [[0.9333333333333333, 0.06666666666666667]], [[0.8333333333333334, 0.16666666666666666]], [[1.0, 0.0]]]}, {"children_left": [1, 2, -1, 4, -1, -1, 7, 8, -1, -1, -1], "children_right": [6, 3, -1, 5, -1, -1, 10, 9, -1, -1, -1], "feature": [0, 3, -2, 0, -2, -2, 6, 2, -2, -2, -2], "threshold": [35.5, 45.85000038146973, -2.0, 27.5, -2.0, -2.0, 42.5, 45.89999961853027, -2.0, -2.0, -2.0], "value": [[[0.6440677966101694, 0.3559322033898305]], [[0.3333333333333333, 0.6666666666666666]], [[0.0, 1.0]], [[0.6, 0.4]], [[1.0, 0.0]], [[0.0, 1.0]], [[0.7, 0.3]], [[0.6590909090909091, 0.3409090909090909]], [[0.8235294117647058, 0.17647058823529413]], [[0.5555555555555556, 0.4444444444444444]], [[1.0, 0.0]]]}, {"children_left": [1, 2, -1, 4, -1, -1, 7, -1, 9, -1, -1], "children_right": [6, 3, -1, 5, -1, -1, 8, -1, 10, -1, -1], "feature": [0, 5, -2, 5, -2, -2, 0, -2, 2, -2, -2], "threshold": [87.5, 62.0, -2.0, 64.0, -2.0, -2.0, 96.5, -2.0, 60.20000076293945, -2.0, -2.0], "value": [[[0.6101694915254238, 0.3898305084745763]], [[0.35714285714285715, 0.6428571428571429]], [[0.0, 1.0]], [[0.5, 0.5]], [[1.0, 0.0]], [[0.23076923076923078, 0.7692307692307693]], [[0.8387096774193549, 0.16129032258064516]], [[1.0, 0.0]], [[0.8, 0.2]], [[0.3333333333333333, 0.6666666666666666]], [[0.9473684210526315, 0.05263157894736842]]]}, {"children_left": [1, 2, 3, -1, -1, 6, -1, -1, 9, 10, -1, -1, 13, -1, -1], "children_right": [8, 5, 4, -1, -1, 7, -1, -1, 12, 11, -1, -1, 14, -1, -1], "feature": [4, 2, 6, -2, -2, 1, -2, -2, 2, 6, -2, -2, 2, -2, -2], "threshold": [64.5, 66.39999771118164, 38.5, -2.0, -2.0, 0.2280000001192093, -2.0, -2.0, 54.60000038146973, 19.0, -2.0, -2.0, 65.35000228881836, -2.0, -2.0], "value": [[[0.5423728813559322, 0.4576271186440678]], [[0.8666666666666667, 0.13333333333333333]], [[0.75, 0.25]], [[1.0, 0.0]], [[0.6666666666666666, 0.3333333333333333]], [[0.9090909090909091, 0.09090909090909091]], [[0.75, 0.25]], [[1.0, 0.0]], [[0.4318181818181818, 0.5681818181818182]], [[0.2692307692307692, 0.7307692307692307]], [[1.0, 0.0]], [[0.20833333333333334, 0.7916666666666666]], [[0.6666666666666666, 0.3333333333333333]], [[0.8, 0.2]], [[0.0, 1.0]]]}, {"children_left": [1, 2, -1, 4, -1, -1, 7, 8, -1, -1, 11, -1, -1], "children_right": [6, 3, -1, 5, -1, -1, 10, 9, -1, -1, 12, -1, -1], "feature": [6, 6, -2, 2, -2, -2, 2, 0, -2, -2, 4, -2, -2], "threshold": [25.0, 12.0, -2.0, 34.60000038146973, -2.0, -2.0, 59.95000076293945, 82.5, -2.0, -2.0, 55.5, -2.0, -2.0], "value": [[[0.5254237288135594, 0.4745762711864407]], [[0.2916666666666667, 0.7083333333333334]], [[0.0, 1.0]], [[0.30434782608695654, 0.6956521739130435]], [[1.0, 0.0]], [[0.2727272727272727, 0.7272727272727273]], [[0.6857142857142857, 0.3142857142857143]], [[0.5333333333333333, 0.4666666666666667]], [[1.0, 0.0]], [[0.36363636363636365, 0.6363636363636364]], [[0.8, 0.2]], [[0.25, 0.75]], [[0.9375, 0.0625]]]}, {"children_left": [1, 2, 3, -1, -1, 6, -1, -1, 9, 10, -1, -1, -1], "children_right": [8, 5, 4, -1, -1, 7, -1, -1, 12, 11, -1, -1, -1], "feature": [6, 0, 4, -2, -2, 0, -2, -2, 1, 5, -2, -2, -2], "threshold": [25.0, 54.0, 72.5, -2.0, -2.0, 71.0, -2.0, -2.0, 0.8464999794960022, 70.5, -2.0, -2.0, -2.0], "value": [[[0.559322033898305, 0.4406779661016949]], [[0.38461538461538464, 0.6153846153846154]], [[0.6153846153846154, 0.38461538461538464]], [[1.0, 0.0]], [[0.5, 0.5]], [[0.15384615384615385, 0.8461538461538461]], [[0.0, 1.0]], [[0.4, 0.6]], [[0.696969696969697, 0.30303030303030304]], [[0.6296296296296297, 0.37037037037037035]], [[0.7, 0.3]], [[0.42857142857142855, 0.5714285714285714]], [[1.0, 0.0]]]}, {"children_left": [1, 2, 3, -1, -1, 6, -1, -1, 9, 10, -1, -1, 13, -1, -1], "children_right": [8, 5, 4, -1, -1, 7, -1, -1, 12, 11, -1, -1, 14, -1, -1], "feature": [1, 1, 6, -2, -2, 6, -2, -2, 4, 0, -2, -2, 5, -2, -2], "threshold": [0.8434999883174896, 0.3854999989271164, 26.0, -2.0, -2.0, 30.5, -2.0, -2.0, 85.5, 87.5, -2.0, -2.0, 87.0, -2.0, -2.0], "value": [[[0.5084745762711864, 0.4915254237288136]], [[0.6052631578947368, 0.39473684210526316]], [[0.4444444444444444, 0.5555555555555556]], [[0.0, 1.0]], [[0.5714285714285714, 0.42857142857142855]], [[0.75, 0.25]], [[0.8235294117647058, 0.17647058823529413]], [[0.3333333333333333, 0.6666666666666666]], [[0.3333333333333333, 0.6666666666666666]], [[0.16666666666666666, 0.8333333333333334]], [[0.0, 1.0]], [[0.4, 0.6]], [[0.5555555555555556, 0.4444444444444444]], [[1.0, 0.0]], [[0.3333333333333333, 0.6666666666666666]]]}, {"children_left": [1, 2, -1, 4, -1, -1, 7, 8, -1, -1, 11, -1, -1], "children_right": [6, 3, -1, 5, -1, -1, 10, 9, -1, -1, 12, -1, -1], "feature": [2, 1, -2, 5, -2, -2, 1, 1, -2, -2, 5, -2, -2], "threshold": [59.95000076293945, 0.3245000094175339, -2.0, 60.0, -2.0, -2.0, 0.2280000001192093, 0.215999998152256, -2.0, -2.0, 49.0, -2.0, -2.0], "value": [[[0.576271186440678, 0.423728813559322]], [[0.4878048780487805, 0.5121951219512195]], [[0.0, 1.0]], [[0.5263157894736842, 0.47368421052631576]], [[0.8571428571428571, 0.14285714285714285]], [[0.45161290322580644, 0.5483870967741935]], [[0.7777777777777778, 0.2222222222222222]], [[0.3333333333333333, 0.6666666666666666]], [[1.0, 0.0]], [[0.0, 1.0]], [[0.8666666666666667, 0.13333333333333333]], [[1.0, 0.0]], [[0.8571428571428571, 0.14285714285714285]]]}]}